0.10551041724968258	0.8234848854188014	0.14250096090853015	0.40849666832002407	0.9569037971818241	0.5738869313548682	0.7284721792674534	0.8367894974175677	0.9775932381201503	0.46017245086173764	
0.9239068978488945	0.9604814380907235	0.8894639753137531	0.7151756993945905	0.24143427129436545	0.39862405941093504	0.9290572791149264	0.6484032722455216	0.4905500332341023	0.5175704424885139	
0.22609625875505757	0.8561649762002039	0.4304437927186465	0.8879011299938845	0.8768256069684953	0.4419630455890633	0.5931593176949377	0.8736985946398144	0.36159150710239596	0.07606308571952947	
0.7218080342954433	0.1749314320703932	0.13420259541278046	0.519265186383305	0.7396744289201714	0.8900679363816286	0.14756896741596948	0.5798174265147942	0.773971110967332	0.778786632029438	
0.8118837276703149	0.4703242173640809	0.16918843270567985	0.4284340485471275	0.26456897336413365	0.4017780378081811	0.5638934661109324	0.8016914209305009	0.14921234622933144	0.4787698902286206	
0.6651670952989084	0.8232364190269505	0.7905635384942649	0.9520452142764478	0.07634027948235178	0.8705894495619398	0.8922228397174757	0.9830726009486308	0.13083029383795886	0.5562640056246038	
0.30681430674461085	0.8178272906671867	0.2636416669541356	0.10665438300652486	0.3124842128754507	0.19208779432733647	0.5581063358526032	0.8579519661833079	0.9273659186804885	0.007775180454978714	
0.51050640204048	0.15673790073096838	0.37329998703282696	0.9765736292488288	0.9069186872393502	0.8973717475486545	0.12527211267423366	0.9733909484292649	0.3736667382332487	0.36266040839134905	
0.2822475744328635	0.49629553346808764	0.22172319329831314	0.7569373721046677	0.6145863527912556	0.28755510842913923	0.4235916927011045	0.5119075041517032	0.6761703445342894	0.8850916268099545	
0.02807731948619796	0.47830791178707743	0.36647096360057363	0.6192752022329479	0.6897732066264011	0.28076512717487134	0.039994523736960996	0.4368874432703499	0.42179230814700386	0.8835180136660433	
0.9064578908445861	0.11348906091018018	0.6936669496759243	0.16281704604512348	0.7170525176123426	0.8000307832453014	0.4708849582963246	0.8527897757955526	0.19353820866881677	0.2897958191825758	
0.07412660817293526	0.7431316109755685	0.6631034999710442	0.5613043133862632	0.7362019723100885	0.9830372580668302	0.08831912819960674	0.8367991521100527	0.48192777946742027	0.8508204429372174	
0.5542534063494591	0.03911851947527065	0.10721018858412128	0.0900957059838062	0.8690168821513173	0.35035902752102877	0.42461464096235135	0.167436741490694	0.04422157898895572	0.400113247603481	
0.7080158196957741	0.4347374761366569	0.3510638630853993	0.41147403413178435	0.47665585189159687	0.5412885612132627	0.7160512705191288	0.6843311707742699	-0.055305964740291966	0.29710360784397777	
0.7850355558069041	0.7530735005431987	-0.0010797322389745942	0.12253809968600775	0.03891832353058029	0.7352321322693484	0.05165889818388048	0.8771468158718285	0.909808850825554	0.4747514050734654	
0.42073987705747234	0.06606966733093753	0.7104158938009917	0.3249513286046834	0.9360607336763817	0.09822688258375752	0.2934970448650117	0.34587217029029704	0.7441962862457415	0.5887475019967577	
0.8952083684116503	0.14286992173159485	0.3137056943672004	0.6365357573785552	0.16368396297182564	0.4751722094553382	0.3523333282871971	0.3062768928137498	0.17047897063877826	0.34300239133272536	
0.06401409285783	0.869206102241467	0.8200872360083727	0.4281860841684628	0.12014686356810733	0.472383636668967	0.5011073098582017	0.7921154427354088	0.7620181832136868	0.9056230317376607	
0.8492444194451472	0.14979690198044748	0.09290005334502027	0.7780631594994842	0.8699742330894632	0.7382578872328672	0.2459008459600307	0.6675773603475788	0.415325137405159	0.374520294745332	
0.9775037992501108	0.667203251587632	0.7437991425859714	0.2790114545199005	0.9574175192925298	0.9898877964681433	0.6234705488970348	0.5854491985369579	0.7698383447670336	0.860908623618384	
0.3685172766723914	0.36156788668748674	0.871611026722813	0.892354911755778	0.28648354541720433	0.3715883692012758	0.6755583681722157	0.418056712959897	0.5842194939734672	0.4101117873206338	
0.589592116461425	0.04029014319549773	0.1325950535551198	0.22321815902825415	0.6170874963278895	0.18397238141700145	0.2739663170624792	0.41696374964072314	0.815824924359916	0.27310730236066927	
0.8388816189694386	0.32269780618062616	0.8515126677350939	0.8261282899721175	0.19524062685315413	0.2767770917491732	0.7774628054714803	0.28834153291890063	0.029269105217677005	0.3007200267363215	
0.774943359434306	0.22969216670912462	0.3798757121717987	0.8785865303113362	0.1716265102979332	0.13593957345448726	0.22091683488139258	0.28460867827643666	0.997827605163414	0.014413323283077872	
0.23088304627738065	0.663161064848176	0.19789772550223605	0.6567264079034002	0.04314812884852115	0.42765187568454643	0.0009524141366802352	0.38264520169054406	0.4081783798590338	0.9066754102665112	
0.4337724477441328	0.2440831465987071	0.9236347837788706	0.6116086902283537	0.3032277482272825	0.983692422338101	0.1410576056623123	0.5336155728563681	0.6642711536801444	0.3373758679913005	
0.20492183606675418	0.31177359237799984	0.08250304901068128	0.8338735627389917	0.6977447442796075	0.9003902203592711	0.7148982755913781	0.598960537460998	0.26081264124095505	0.4273803080940657	
0.2595227468538229	0.7659703231892616	0.0492674940904283	0.16453483362834098	0.5392585248459978	0.3868100844314034	0.7740021460410648	0.3590081887367915	0.8297243687128147	0.2617882039363577	
0.06829397128116488	0.597772940012561	0.03423116663153947	0.6823492684535788	0.394528584061833	0.6656157381371233	0.28618094220688883	0.34089496947495557	0.009130614819141347	0.03083671597372406	
0.7965830407080723	0.5265412403566727	0.3180034717469956	0.29569468366013274	0.7368340539695865	0.9895790952912069	0.32125882346457346	0.589545077674325	0.684822462852393	0.7605169188118269	
0.3117416926484641	0.33622192243877513	0.6771884088633287	0.3855341568095727	0.3648608113695786	0.8124965120295852	0.32129569023872917	0.24875397176973624	0.9776553537396286	0.22221740861436634	
0.7475145986005434	0.22718225417406834	0.5413747067046705	0.9756779135087066	0.062067724928155266	0.9149364654105292	0.7707057842540233	0.8545436222720125	0.11067753918620904	0.006979471222691824	
0.2577438178451774	0.7036964630513569	0.66154375588628	0.4267492996213508	0.9481646569200819	0.22008226652224536	0.6053269046071253	0.2087126666157216	0.705188004614369	0.4520237577195928	
0.10659064737317547	0.671779818124184	0.03871693341730772	0.5299247723504357	0.438816736316677	0.4408634850126656	0.9462725164192952	0.5133450449982812	0.312877157526057	0.36886457714182086	
0.5100008012288925	0.756625411668702	0.7473908973010392	0.7320584129834552	0.015829404880689863	0.030999454373990473	0.680451056682714	0.5174597470540792	0.4895850720795185	0.008854442006323408	
-0.003261640461860668	0.40525403699499135	0.4198124513352622	0.14971261563912464	0.3547311400742103	0.2038941520979666	0.5004196041097481	0.04143431747890225	0.455344556759936	-0.00509007823886981	
0.1187799806699454	0.08924711697937476	0.3281367786960003	0.20251146936654119	-0.2023171031866787	0.2903486028642146	0.19297559005104178	0.3172756660086468	-0.06955656247956485	0.010848911089680653	
0.23063001113314519	0.002162291789612252	0.3132503066810848	0.2872635596021506	0.4864942824568256	-0.21698216784948948	-0.03437227379956324	0.03461349219463209	0.4276851943751348	0.06380996796601565	
-0.25136751967574306	-0.04035219622948697	-0.12434000237352671	-0.008991754565308086	-0.20471744786733992	0.2829874401619206	0.14665362043635646	-0.12548230785488731	-0.06666727558919859	0.052720408971380084	
0.26723227442818176	0.15319176476987664	0.05501340433005628	0.044687141692833644	0.18241329687942717	-0.019255452234182957	0.07275951203998507	0.238308165605257	0.08233225699123226	-0.008424722102453553	
-0.04752594615659601	-0.08145713597356605	0.06793661700263184	0.0227762708882248	-0.09479250255950966	-0.10394003800452885	0.0037004682690595665	-0.12087922424088365	-0.034002953170135373	0.015550771051042332	
0.043870782624732575	-0.017624252647563534	-0.1157719920602859	0.042818151798551675	0.05412166580699806	0.1361771327384731	0.062421780754696295	-0.138552684751121	0.1701218510228272	-0.00450694246891088	
-0.03945494458667414	-0.02606685931120984	-0.020204866755158677	-0.07766587358179562	-0.14680427492517606	-0.09111776354644811	0.013206062473787328	0.1916649386495595	-0.1908671431642949	-0.01165551923043654	
0.06173550013295681	0.15630221484063692	0.1417225062291631	0.1018053574957934	0.18140676613008347	-0.07727403351115404	-0.0421575076057345	-0.11609054221233144	0.1103785888031939	0.053821686579882594	
-0.033497330616871705	-0.22983879031335816	-0.13661614145811096	0.021950536099251794	-0.07177808878887075	0.1628183104785091	0.13552318303545835	0.02300117032230162	-0.07486879051295887	-0.14276537950820387	
0.039637637779961994	0.23303792259178752	0.19827422892234084	-0.032439982715679674	-0.08695861285606858	-0.07003971623670902	-0.1427478448541158	0.03987461096418618	0.10833708672603337	0.2346443524602653	
0.10695202677317678	-0.04379055840739416	-0.11172435119812274	-0.040165760763879135	0.11731831273804955	-0.016800399021473834	0.260317336208746	-0.1358883981168674	-0.05784032195475126	-0.07443662236378351	
0.12503894555977238	0.08671502550381985	0.13178689516671424	0.2987493104190523	0.2149331604817535	0.2473088011584589	0.23294410941286178	0.30871235823791615	0.13904427761504498	0.04599937772502965	
-0.11137412517619467	0.2640355547700948	0.26517138455435657	0.2213161087005625	-0.18496612470840096	-0.12442773354655612	0.15455241934297287	0.21187355912879888	0.12592848829029296	0.1817467216445972	
0.4682510392198491	0.014765233222540173	0.4381878694250458	0.28398453454538547	0.3484879745191492	-0.015948280964595513	0.5717406152400741	0.0683861493491731	0.32329433595230134	-0.09298916832127672	
0.13793393187506986	0.8617728755959108	0.2728836992015235	0.657533903161742	-0.07879043793994907	0.12028674350939271	0.19199481078856004	0.34147593380772573	0.6538843824415826	0.6183782380240187	
0.2011661684899696	0.7370843681791163	0.34763779708107057	0.1319658759709633	0.8558664365586267	0.3551274895724682	0.43955512121725643	0.41381033813108054	0.5379362698188357	0.3023889617671871	
0.05186645495661679	0.4767266986952352	0.42437527698972677	0.1749552275848033	0.48122532182066535	0.139188465009511	0.9425788172831996	0.5162785700288153	0.03686096572802389	0.701108278161362	
0.5901189685801449	0.15252751100510775	0.9613943295571192	0.8635829428054522	0.6402210468383819	0.0776532131212494	0.4881563070843731	0.6589675215544655	0.9397111470055992	0.7791438152282318	
0.057560588056015716	0.7949240800285322	0.04039859142224156	0.6781693312952266	0.7879321594899933	0.3635068384187473	0.7775106807725849	0.8531391543238287	0.6552627924829986	0.5468333285269293	
0.7559958358344484	0.8266598112994402	0.41233695751890986	0.29527085811515275	0.21903965436855133	0.07507645515451045	0.8836427999302744	0.10069340247393721	0.13624259657689808	0.6024627067007883	
0.570951526962312	0.16893980367243344	0.8462226805435331	0.49022591134162374	0.8534027620336766	0.09539741962218595	0.6456380922449667	0.19343603272597987	0.7342852167704691	0.5173186035121593	
0.7481548265336802	0.7985080700651819	0.5625342637489774	0.47831578700541055	0.7323913458463801	0.9523336367215693	0.5280406855867351	0.10557785671799969	0.10848545557352518	0.1541333224732826	
0.5895503749721878	0.5787113158359902	0.7971695826118237	0.2715279891614731	0.9170459873991684	0.8425631022627177	0.3184587138872854	0.49705660591427225	0.5003469512767292	0.9326398880485538	
0.8575310712286378	0.567512336080024	0.7958418020514074	0.16214700793662482	0.6894353680708952	0.585543440450973	0.5059886837389383	0.7054244941465138	0.9684915618925725	0.4157577497284155	
0.2365508738808554	0.9303593933883803	0.34533184029114283	0.23942899740062937	0.29963905983946065	0.15117609477649632	0.18227821527711643	0.7709752083043363	0.597021161326857	0.5722947276179103	
0.4229001457878841	0.8458108545005447	0.282500910550825	0.08512790402768108	0.792507846822265	0.03811114122875564	0.9246580651825071	0.6587071468796901	0.7953888919612642	0.577545719384775	
0.07748123022775656	0.38625183784897205	0.07641440748120819	0.49507201004214646	0.39983250238609985	-0.03217056303026476	0.3757198414301817	0.44051775340727656	0.5909393866461387	0.45212380745810477	
0.3122214104288156	-0.004375618562203776	-0.11855095531012029	-0.1935141782561134	-0.01029109964310584	0.2678260881305429	-0.28527275134916574	0.11325198664581447	-0.30922504231838405	-0.12942791691062944	
-0.19867889061955846	0.04701694534646533	-0.16354429261556214	0.051907071217795094	-0.12066265346055835	-0.11420767140912419	0.17370508801431805	-0.20917535415772015	0.20978300755809712	0.013826300219327032	
0.0026123683840081854	-0.03405939733042488	-0.052666396590494075	-0.056125978966131224	-0.07806209254299966	0.0957897453824463	0.04104417483623608	0.056965322506164	-0.18564992345983863	0.07059255570498568	
0.03597368420158939	-0.04183302428380528	0.01091168763919001	0.02752093274788808	-0.012078656851522224	-0.12319095133053132	0.008268362120974893	-0.023931505130314796	0.0004515575339915335	-0.10590592670857459	
-0.06810440402580052	0.027129678530311545	-0.07687550373686745	-0.008303372542491612	-0.07968111823237332	0.06611091124719622	0.05264553566798763	-0.014551097974390456	0.054354803767397174	0.06317832370549498	
0.03282504536335246	-0.01737723664992836	0.017563879509377617	0.012172660020948769	-0.0192832858471321	-0.017626512427301677	0.07559974372508972	0.01819191451684013	-0.055008474131690036	-0.038736044678626395	
-0.011603354938431806	0.02887726102568039	-0.06288168618985149	0.01435957945235761	-0.033826675249661264	-0.003056962084498607	0.06755901373147542	0.004975538778800981	0.038373787913836895	0.008794975393213009	
-0.001610537759555373	-0.018471860831395962	0.0007267952890705367	0.00795132399967631	-0.017082260194229267	0.003455309114933502	0.06608266407225351	0.0021004703590485744	-0.030254004875480987	-0.0077798983588623005	
-0.00030449305239404714	-0.004875248172294796	-0.04923785675859578	0.013426350184954966	-0.025484235962652677	-0.01170363475069043	0.03282485900631606	0.005942460062444571	0.0255305007952426	-0.004979626955274739	
-0.02045774078169702	0.018869733537786364	0.001974819104602559	-0.0021680394312658525	-0.011775056742213231	0.002773414202541963	0.06598251878449637	0.004306641641516892	-0.02075506639987811	0.004596580295861047	
0.0028828133288942718	-0.024740390505341058	-0.05782474028664162	0.03659771934404819	-0.008428854751493667	-0.006199458054147132	0.030104922833961812	0.0011957042272724462	0.019021927464637423	-0.02173818909500476	
-0.029024086665018014	0.009455861289710842	0.006694012257602849	-0.011330488220259017	-0.025288263275871154	0.008988438940097754	0.040970939125037305	0.004534841870343455	-0.009696379820837816	0.009497750715163773	
0.013659520659870113	-0.030059323288185058	-0.05748963155531712	0.017941480269563787	-0.01124230006196674	-0.026166187821927117	0.012226898995715264	-0.00617238600743308	0.008822320337153926	-0.02085455051547318	
-0.061201221398889456	0.030305739004168834	0.001980081157009334	-0.03292857052258748	0.0004403898969200524	0.014842727940113074	0.025527588757481356	-0.01530470890739083	-0.02571894363401121	0.018551148574699923	
0.06035805197636933	-0.10453667585655708	-0.04037274941718527	0.04638229844999522	-0.055481427396878134	-0.03796728346347461	0.039417220042514356	0.004873410242164892	0.059665737359109204	-0.06884492041040323	
-0.08911015339158002	0.1140805477472442	-0.07297848979604726	-0.1140022201407616	0.01816623316971737	0.024342871248947583	-0.07716480646373587	0.04361836560378361	-0.1762248230192119	0.11055755150027523	
-0.13022156359697037	-0.2670678346543881	0.21203223603233629	0.1223704090184118	-0.12995957155383164	0.003702974324408537	0.3669003978075154	-0.06269453355447048	0.1661492007947533	-0.23039991327603132	
0.39599753949633243	0.5818647557840415	0.2850222603937939	0.07148314315471428	0.21332147239655616	0.29664628627148765	-0.17749443343587767	-0.009734770946942436	0.41133249245902354	0.48324023452075676	
0.8291756900888108	0.2711698515777898	0.5099761529443476	-0.008898269412661669	0.044066750655281615	0.3298491862944766	0.4179579307260099	0.09140966757819977	0.12752847394411854	0.7756366732488339	
0.9200145319628252	0.46407007508403897	0.685234581944007	0.8930789987791439	0.5048733640884018	0.13972000096289228	0.2762910179414282	0.8024640030605289	0.92906969155253	0.07890720051293032	
0.9793023056130947	0.4747449819858296	0.1523855853569307	0.25301080056001113	0.9311656522948124	0.25637670127187706	0.95328260202125	0.9796320983812246	0.3531663331880075	0.08732070856198282	
0.18844193399751652	0.5099742779596681	0.19095500372796903	0.4169880551398424	0.8297121355704179	0.07169280182590565	0.6401995085145892	0.46884285055391306	0.4018756448004034	0.6218044542391901	
0.5551954169210489	0.021533346540371423	0.6281430570864418	0.9615403256483225	0.0036680879620973883	0.24859479284644992	0.8357419767341124	0.19630280208765527	0.025715261698500802	0.4139120259035033	
0.279011496566687	0.8033747179623173	0.9076445770025352	0.03600407411074054	0.34877860815571826	0.6890329749674377	0.20556028165560986	0.9703892261127892	0.6963877382942985	0.12432004886827248	
0.4518426289355868	0.5753338726950615	0.910225222169298	0.041876844022778296	0.22013021942431574	0.2503504338082064	0.3075711386358024	0.038443291008755966	0.9035441480722408	0.2872535706261498	
0.3439959804899582	0.27637810607040464	0.22019710230002812	0.1130568681457706	0.04205067887224013	0.14695200410370518	0.5172826208701382	0.7098456193235515	0.4466753814900528	0.4459501345126776	
0.1571996550139489	0.5071472253291205	0.017522346120719897	0.03331240161840283	0.016273908118492483	-0.039153052893759394	0.0012795957985700232	0.48073301023005466	0.02084300393742232	0.0751501028153961	
-0.14498462203844278	-0.42241392204554123	-0.014515222530452256	-0.1038341909983224	-0.2814491291077216	0.06503847355239702	-0.061226512287886545	-0.12637078779280964	-0.030915536287506613	-0.052438891451831525	
-0.08250070250713079	-0.020925279396002954	0.0254789683758558	-0.012722003196160655	0.05444794038247286	-0.136403600888484	0.1361700189901611	-0.2098373760950214	-0.04993146343792617	-0.011372344837760251	
0.05942873580424305	0.0003306406132729743	0.0007041745070873594	-0.0008901979332729856	-0.04317215122378417	0.05785662857912363	-0.11444358660310364	0.16303928459240088	-0.051306096426731854	-0.010921392784133602	
-0.030204245171446733	0.029226782794768178	0.026950333036221293	-0.028587811216184388	0.04150069640692967	0.011379022782241788	0.05170459708257222	-0.0329554887546636	0.09570345610929382	0.013039228179774378	
0.0019000023740883732	-0.02030938792677558	0.01127550852398359	0.011686298413875727	-0.04063860526813099	0.025528040912906787	0.014915151285799101	0.00762707692429818	-0.042003401049600424	0.013778653809031793	
0.020236683128107186	0.013032211710352608	-0.009581167861013595	-0.01625460815325075	0.021253694146911552	-0.012202570511651543	0.003985744424411273	0.004121247079845983	0.0065132949953757915	-0.008843853367701339	
-0.01616299023039886	-0.01153234511949936	0.02165154794883804	0.013444858295450685	-0.011408698194419451	0.009263823238803367	-0.010352041079534755	0.009817204867087384	0.002988448659104149	0.005110205803419495	
0.006183100815423419	-0.006814450234925867	0.002815211453131669	-0.011310009291883907	-0.021426198126175373	0.0009224427263993851	-0.00021888387570395294	-0.0001702435051187668	0.0017319350885904637	-0.0037311490726549277	
-0.006872231115027758	-0.0038763875263347187	0.0009311688304461204	0.013853796457529877	-0.008728497819247878	0.0013256034181775296	0.019720041366302957	0.009188395801947937	-0.0023492631564648123	0.006222850747794846	
-0.0008572545942124715	0.005253299024659078	6.890961186123647e-05	0.003950303134509489	-0.0103473966729919	-0.0005088512333743888	0.02413113166375141	0.01525116195351484	-0.0033843583955882753	-0.008952105167398132	
-0.008914542376617124	-0.01749285478457172	0.0019008134552491633	0.003852333746680571	-0.01083503419737328	-0.010832442929631779	0.016043701824664417	0.008633500029580184	-0.005171437503238507	-0.00417847053914828	
-0.004667421234682988	0.0037920807248250517	0.0025448862199299043	0.002979962725465079	-0.012253307026124868	-0.0010927918730073208	0.033452015781020104	0.011497111897052098	-0.009387385810770544	-0.004298080380515406	
-0.018664565723558083	-0.014223447007965274	-0.013937298655099154	0.015362906990988941	-0.013322255794940185	-0.012104655154841264	0.03864471880385558	0.010356489840628936	0.00204506600324493	0.0011838182529000012	
-0.006744653660537077	0.0029999279760612105	0.00495811898200012	-0.008881976026074762	-0.0020568163361214605	0.010391567363016753	0.05856691756496448	0.012516074563684367	-0.014249001261675675	-0.012706428009470468	
-0.02221092513316231	-0.0556376449407395	-0.027166487410471313	0.04401446040050164	-0.01113848067939858	-0.05104885417661396	0.032507446640785156	0.00519764274732337	0.01890161905751851	0.004233850092974204	
-0.01634143283582037	0.05314080075847271	0.03520942413812856	-0.04028566646197293	-0.029874046747720182	0.06408544140826972	0.0859666341586179	0.03590596579526625	-0.019640228794821524	-0.0028725050623004743	
-0.016554135281748796	-0.13276079172275937	-0.06833426339297066	0.11804639367067009	0.048489775039182656	-0.1475002600702803	0.021289945413578842	-0.08582882575057199	0.07384607352503612	-0.005444675491214153	
-0.02736614588277409	0.09129748379071839	-0.08329260312024345	-0.1733349290659097	-0.11956773010647362	-0.0027689555654122535	-0.00792907949336213	0.17143914702410817	-0.104760573530155	-0.0157710319408756	
0.013967921326462202	-0.21597709745280735	0.01804380469386195	0.17289096693895395	-0.03156762220638205	-0.06891068426686575	0.11653567902740235	-0.22716321779008863	-0.01801968864342371	-0.10437838085563471	
-0.025716521003790103	0.4073304990118268	0.24252975228972998	-0.06519924533748152	0.6593109588541507	0.5820481293945308	0.37500012438355296	0.64538033001734	0.5161671913855247	0.41029800099630787	
0.9670425887250217	0.22459851477662332	0.463451969349697	0.6906955040542813	0.23798346624316016	0.45337697789585196	0.7141649487356776	0.9255199552005928	0.8145286361538595	0.8421663927278004	
0.1965478029764267	0.6642376687747679	0.4982089427347186	0.9063728362494105	0.6271933266432126	0.4804435005043517	0.7216589272736668	0.2960223200318859	0.7186557636608948	0.10960799501331497	
0.3079416935344218	0.06598194507876376	0.33773482698305013	0.6039938230073553	0.21488742818724238	0.6925578571829198	0.9006221645875289	0.4177158535090091	0.5888462807721779	0.679026054720631	
0.5601521189111506	0.9915705583709932	0.857673839265623	0.9536253397083456	0.26178948727670726	0.48887452214269034	0.6907900982895534	0.19469041383471794	0.815593546107115	0.24247063900264143	
0.8687901905684489	0.19690962749498656	0.401795029193932	0.6740659745898504	0.061776995435639886	0.1348575285565986	0.7422142189974607	0.5215411791183587	0.04255201904080895	0.1598699395773261	
0.5205328662233044	0.4442302463162543	0.390814815560304	0.1679045612289303	0.2777585336759249	0.6208165611512766	0.466757297144094	0.440391741902599	0.4666164137139505	0.6986736357456093	
-0.16429948856474713	0.16808929557932184	0.04674245862624402	-0.012546472060093778	0.2660820154259438	0.4425924183302802	0.15900981093338934	0.3416553293200307	0.3993770647239314	0.454895080100124	
0.06653031201165092	-0.0574979232261847	0.06137049553129425	0.13477491462378197	-0.039435418220879793	0.04564754883206127	0.04879601791621167	-0.05746686146053315	0.017015003905047458	-0.1753945688133497	
-0.0015763906134317412	0.09670875162977739	-0.05035241409529824	-0.08802134188295602	0.054889541342007374	-0.12643841054349722	-0.12940199867672203	-0.07929984599664695	-0.07396731256409426	0.03413222828486426	
-0.0080618436546216	-0.029007261080816013	0.04394905432778424	0.05735990218949349	-0.04034713286638617	0.09154380616222425	0.05279074508232032	0.10108714430348441	0.05188696650757887	0.004635102624717161	
0.004786559758104863	-0.01452497596073827	-0.02689491701761512	-0.024663343098822905	0.03487445504372322	-0.061130236425079996	-0.01100680068186925	-0.06738334293588018	-0.004302786435426227	-0.01412409229428045	
-0.007533644771528004	-0.0011990936097625515	0.011351317624871534	0.011383349878839408	-0.013958568031583917	0.01914657934122028	-0.01729241261334332	0.038577308175324836	-0.0021489493817908865	-0.0007255146146737448	
-0.004997179685956173	-0.008257948176480212	0.005041599923825169	0.0039025222343345312	-0.0030776326684559853	-0.0011325542898254044	0.0061024632029022365	-0.007750194856468519	0.01900743473840654	-0.0069963925002287175	
-0.007016748437689199	-0.004668669998210203	-0.0014296224264005743	0.009261286333005247	-0.009096932800565186	-0.0017844224163074763	-0.014372425340903825	0.0070906282878486415	0.0005939425728920724	0.00388431474234368	
0.006131245907232672	0.004728669212334018	0.010866236135065514	0.0016316920887300941	0.009716627859043125	-0.001178534538595551	0.0016185956284914336	0.0046700309605307655	0.0034231331872358116	-0.005443854540541036	
0.0066363478308572674	0.006236456167294587	0.005978448510523914	0.0002065957356336896	-0.005213049655317539	-0.009290434840013172	-0.00983901002703083	0.0018095187243248338	0.0033056295033401686	-0.00026307243055764573	
-0.0069639387702407985	0.002126749345996131	0.007174947246168233	-0.004097268793451388	-0.0017939659333688128	0.0026861425921150335	-5.692478909355559e-05	0.0030007361328117607	-0.002487270536474978	0.0006858751099349453	
0.00983200673419534	0.007108172043738046	-0.000836235475006811	0.005749396988867325	-0.005348461013023395	-0.0024954563294338427	-0.004603972631956727	-0.0024772926790967995	-0.0017596400909265341	0.009667222093715691	
-0.004598003391369378	-0.003946297726220997	0.013505650705715785	-0.003849623662547831	-0.003972194065812208	0.007836837543039734	-0.007773895916046996	0.0008275237330415415	-0.006697440920818544	0.0015884814559831728	
0.003805400174567425	0.012049358390664178	-0.00023465210181180984	0.0031246221188732637	-0.0028355386735395578	-0.0017944527081305067	0.0010119337295165574	0.0037435599445181543	-0.010358264949960864	0.006980330730937616	
-0.0005193581560324561	8.423225532484176e-05	0.00810162609637688	0.003076844114541917	-0.003685935623898857	0.005690404513837456	-0.005464408038898295	-0.0029548837191706143	-0.006234127250860648	0.000526605567598435	
0.00576141681056976	0.012056023471003697	-0.004441531670348484	-0.0008914757216138063	-0.007372269230675576	0.0016953565442031685	-0.0032469639610503338	0.003932902987143908	-0.010168032549721586	0.005121653251568931	
0.0015130318905405657	0.011542261771036703	0.0019660155762785464	0.004287663294690414	0.0056082634909574375	-0.0064352080153795704	-0.0006175315378999741	-0.0016480015959628841	0.0006205156349301016	0.0014223611892138289	
0.0010165594551134957	-0.00046287139736489924	-0.017034345083121676	-0.006572294206330066	-0.009016525554460732	0.0036330237716934812	-0.005541848513952256	0.007215145886185476	-0.0031708909851380154	-0.011048877834322178	
0.0025856146649077317	0.015569928667899545	0.003995941237111331	0.014107477325656934	0.006485234953751115	0.013775788094621124	-0.004034564717472426	0.004445653713600864	-0.008346395597849905	0.01671516100095837	
-0.005882321889082906	0.015073464744905016	-0.014584658880096532	-0.026147699148897245	0.00465295732045525	0.039980179046431974	0.037456791508127404	-0.00196467635891886	0.005375654714222336	-0.033338290549411925	
-0.058217776947654516	-0.061679475003093176	0.025797764414286682	0.035646785417146665	0.01867785533702656	-0.004436255813536984	-0.1002259559218587	-0.0038141299451137645	0.010035560825771143	0.08104215844962473	
0.0716425581230086	0.07065623373425135	-0.20216036044705488	-0.02617333260845103	-0.09914675449993353	0.017471019239244795	0.1916113629638687	-0.026889660832085657	-0.06249134695826111	-0.18473961611997378	
0.2997942034532756	0.37424529555059355	0.42783950710715946	0.6675036570915172	0.018670952529778715	0.31078035282755606	0.3032318323530497	0.3088891924950821	0.610927055639254	0.5024395414696313	
0.5041280015257279	0.35174800696170916	0.06615020696383844	0.08401146922608436	0.7571062213891655	0.059232192796175386	0.10534682460797112	0.5442273530526405	0.8088446961089247	0.9108573637976708	
0.09526275691705333	0.020902959404514032	0.536707451055944	0.5201298028772433	0.2812797373182324	0.8904341473864159	0.2483413605004985	0.2892344214361442	0.2096407458952696	0.3513428906714593	
0.18042006917702724	0.010441539241630493	0.1384050650148302	0.555950214983778	0.2541681799470935	0.8593359747656624	0.9690105546777059	0.7258624083399915	0.7112491716296755	0.2522591991999096	
0.5663107503004222	0.21482926451293832	-0.007036230896320066	0.7503947156281113	0.7584577145394578	0.5203406074984035	0.13483067140053961	0.475507353698757	0.4528247428410625	0.42214170471239787	
0.11004393185138162	0.10701121312711288	0.6116764479952288	-0.03464393852989712	-0.12678889860796036	0.1878967123276761	0.49533050358303454	0.012524550830512822	-0.0857431935323087	0.37505398319280747	
0.09067011484420391	-0.053023902272427224	-0.11470637276414786	0.131001066594257	-0.08978987287223061	-0.15978881933527397	-0.20223890848325438	-0.2244407140804382	-0.03081604389063109	-0.12122073173644425	
-0.09213656355272946	-0.05020922354726737	-0.03733013399259994	-0.08197796965546618	0.02298536675856389	-0.01604882960246077	0.02904214288254199	0.049450168034875605	-0.04814489950867562	0.014776589266646862	
0.04762069294639461	0.021147638508095166	0.023397763976083435	0.0627747644688053	0.0007782884613226961	0.0353714459625587	0.021295715548863663	0.03705774846937738	0.030987421221470926	-0.005860337777932114	
-0.018763419908904812	-0.004311260077173742	-0.007224701109599995	-0.01404857360786645	0.029468651662862003	-0.024139170195162443	-0.018501452215025672	-0.029696091039983268	-0.011395831436276965	0.00935252708406663	
-0.004915638616044601	-0.009420942815803716	-0.000248996762148477	0.01043562293061518	-0.024049775551955567	0.013065277338040922	0.010260276733883297	0.01188677605502434	-0.002258953051094231	0.0050078122453202515	
-0.00044346238328067406	0.0030234591101080074	0.0048868791359912124	-0.00014313309487149766	0.022182940323540783	-0.0017229454483083714	-0.006740103276773322	-0.003400999065596169	-0.0031578813752014376	0.008187335771863846	
-0.005294534257486918	-0.008901324018202737	0.003568316616359071	0.010951891123766948	-0.008849438301425382	0.00206287516627071	0.004733298837225555	0.003912235993368438	-0.013291868210052668	0.00500621233359498	
0.00032979228788926666	-0.0025736718815107767	0.0029862433590310484	0.0068092567626740754	-0.00530504202168733	0.004396744901976588	-0.011872116483515988	-0.006424153646813682	-0.004689345195824934	0.011053116688443257	
-0.0008564242595939503	-0.0021923707163391437	0.0037476900398576932	0.012225283596417117	-0.0071218317328875	-0.002752896508297449	0.005430198625800706	0.0067096222325338664	0.0009620040202089653	0.011020821602243769	
0.005579333987672231	0.001272469657045457	0.004974453392937265	0.010488781528141625	-0.005318253114780089	-0.004411570972886416	-0.008809945960464456	-0.002679861288534289	-0.004630518116466363	0.005334511451474997	
0.0009619815000853177	9.723449988021922e-05	0.0024465667665944497	0.0034683763106505843	0.0010136436400930448	-0.0035353699716026104	-0.0004340492379185496	0.0014590487721691367	0.007340600598749824	-0.005049225139076787	
0.0028594585960083907	0.0015614948589887817	0.0034591892421392757	0.001903888126481694	0.0017508693694789313	-0.006544456910820171	-0.005592609811868362	0.002974492681933008	0.0007506852712158838	-0.009369157475883872	
0.003240560094374747	0.0004701038510704322	-0.0006047033513292449	0.0032188192388990563	0.008338616753832857	-0.003995760087214799	0.0018921572671559124	0.005759447718915794	0.008517643279358588	-0.011735641688942257	
0.0037843152140030673	0.0015769149062138227	0.0063232224075382435	-0.008542870661134206	0.0013163367501235394	0.002616062154361657	-0.004297904809952433	0.003663564943312711	0.01010625012366232	-0.012095985613098117	
-0.0015828101785196234	-0.0007008243116491235	0.0016050024651274853	-0.0056646877871692905	0.0018700595452777263	0.0007497135129529934	0.0008489877990283153	0.009332070697480042	0.00779347059907825	-0.006229612925452681	
0.004869295780532976	0.0039003034213979586	-0.0016494677729266994	-0.00013209541559540427	0.0002331010615978705	-0.0015245549751218331	-0.004440908827271438	0.0031509591726601328	0.0030687212002997307	-0.0036648354389234397	
-0.003765217685946727	0.0036289760553685152	0.0002052839575763223	-0.008481818288143338	0.0016527769913166305	0.015619627726450373	-0.0035593591556688908	0.0056358544695598554	-0.001050440795141351	-0.0006845129618747943	
0.0008383374797286494	0.009476439979082684	0.00549099797674491	-0.005837048162134173	0.0072040408948442665	0.013930102349176297	-0.0041140118919410175	0.0026966773861276027	-0.006328735386188418	0.0003762482416181893	
-0.011173528651491633	0.003182666367588111	0.0039266346461008655	-0.01195887021834123	-0.006748230507658766	0.019992106987043085	-0.0035106604565706945	0.0074700065439908215	-0.009308018794744742	-0.001189102374146777	
-0.002282236942132519	-0.006174627659384998	-0.0020167865223801647	0.02164574244262835	0.027155496810348224	0.020615242423006757	-0.011912231514195348	0.008822917415891867	-0.012139405437363105	0.0004247248439450232	
-0.010057066596410494	0.028903692388611422	-0.008860003706438852	-0.026333506218669013	-0.043247033984704225	0.014845012425884697	0.04113913844017628	0.02659580302672075	-0.008841920370921519	-0.004664112815448426	
-0.005512669407591107	-0.14502209544940614	0.004053498977019967	-0.04189613145806605	0.06359709279577602	-0.06697191131302953	-0.17856724783555436	-0.08587596130428957	-0.057744872516968464	-0.04104164785924627	
-0.13308002692014254	0.15334965423649494	0.10407272086077535	0.17108209853390408	-0.16412513413888205	0.3618981866307898	0.3871789430587041	0.2946529051608904	0.17723746982337593	0.19091321856185722	
0.3534317344084611	0.7725532956297785	0.00903567315166667	0.48744959461247434	0.7169730137784063	0.056173427927398385	0.2126184248696948	0.1455685051072256	0.37364815154956327	0.7136730904932138	
0.08247342789334977	0.5859629288273752	0.667137823307407	0.6077798320393203	0.2672180369688598	0.6630616110899419	0.6575368908573643	0.35029620277964835	0.03225116794377503	0.34798512808946835	
0.27905130199632733	0.7480940968527782	0.6530330242622436	0.7796928200803238	0.7225607991720392	0.5755812347892011	0.08835347567337902	0.39422314095841643	0.36924451990906204	0.03992559171823025	
0.3631364123089353	-0.049764638454323815	-0.04622789898194156	0.06165788652423526	0.1529569129965898	0.7478998556660148	0.7605484646250307	0.30206801360532165	0.38770007589761907	0.04161136812607512	
0.09389394280599171	0.05764748995753464	-0.15257011869115317	0.024737109081251644	0.20319623357831376	0.0451794101148842	-0.04593791904439896	0.08755537548206613	0.049137565973963376	0.07239962723535105	
-0.03983315059773856	0.022227746276241432	0.02527054536983446	0.019379931113604427	-0.054987565480703535	-0.06213983626630146	0.010015437762018714	0.06020900481939737	-0.007772431746627581	-0.04942506531849233	
0.01678697713811192	0.008171627912803625	0.020471340534247016	0.0021358276897884662	0.005214524451959406	0.022707922212098733	-0.0024736289588720805	-0.03777139775933725	0.024005669350618857	0.030964664767181196	
-0.013228120547266756	-0.023832065322744907	-0.017749693124380295	0.0010811282405958265	-0.01385511828085067	-0.018407967046909397	-0.011563327128590997	0.0033722494816781187	-0.011950715166365545	-0.007651623285391627	
0.006590879756633118	0.006373243324791505	0.007943024304226307	0.002313516671744465	0.0027823944482181814	0.006127197125381476	0.005370345079699789	0.010500578057833764	0.0005489014516078883	-0.003574501320950979	
-2.338439709642536e-05	-0.010755294745740017	-0.0005172048272453377	0.012251496728282263	-0.0007094607835623894	-0.01390866304473733	-0.002083407451207146	0.00388586764689855	-0.006577325556637604	-0.0024611409238261745	
-0.006090232023256031	-0.007304007851962227	-0.0022666855341779845	0.010442241805554723	-0.0020482572100228563	-0.002201182604070951	-0.0017751619301929688	0.0023022437630640705	-0.004097492008924611	-0.0017579414134895237	
-0.003925884312565596	-0.0107648283792241	0.006472927779927526	0.012188459503497916	0.0011633229066894469	0.00047384962103491206	0.00031427226702468463	0.003776126476645482	-0.0018585243228659088	0.0004332738432707866	
-0.0027450727552370746	-0.0012479145174592004	-0.0012391378964651321	0.01111865770960887	-0.0056510344909294725	-0.0024914685565267784	-0.002856813955406565	0.0023396634214726346	-0.0036980106507388364	0.00504000251756486	
-0.0038052770630732017	-0.004048852377367942	0.003634323539410616	0.005256770088780662	-0.007768433427045295	-0.0008170861611988412	-0.0014018592682155631	-0.003456282453251177	-0.0011621751320951015	-0.0032311647946096055	
0.004086568954377845	-0.0012228974399705313	0.0010833891591815008	0.007655945713626455	-0.00981368553226694	-0.00031126335398634663	-0.0033849295562268533	-0.00016126459160841492	0.0005773370645519695	0.009160919031350741	
0.0001066470487907098	-0.0005320941054911385	0.0021100938252358965	0.00267843788648956	-0.014110316933269246	0.004540638502207468	-0.0002637115464372519	0.004220671805118526	-0.004029543876915295	0.00559959021785573	
-0.0009919658454644615	-0.004047680548523528	0.00527486298387634	0.0045961144336265644	-0.007714024348854788	-0.0035055227012292796	-0.001384462610633879	0.0007016736543960944	0.008370465882163915	0.0033941418146932107	
0.0018245199081823483	-0.004655438513275362	-0.00023977990501495048	0.005832633660515028	-0.015535368529765524	-0.004530522341547503	-0.002407000247012955	0.004178463869166195	-0.0008667553891829742	0.010259229934424734	
9.531738493141362e-05	-0.0034718091777976978	0.0006235909096604761	-0.003828663843123107	-0.008169080622726036	-0.0009367333025708526	-0.0007292421592966918	-1.3153586904565492e-05	0.007267838253699266	0.009112939376228013	
0.0042147566460932805	0.006415741018924386	0.000659810369122661	0.003717999079375857	-0.009471393123020897	0.004199892227074175	-0.00551955593846896	-0.0032970905558016004	-0.007895299085558055	0.01248692035954392	
-0.0040350631678152315	-0.0008690405342269561	0.002872796868989485	-0.010531482496890099	0.0008839285344748179	0.005488983281794565	-0.006982373240946644	-0.0013853109711508297	0.006441419879964182	-0.001401916235651807	
0.0024488743661253303	0.00696263640091403	0.0007637213365099878	0.0005495622359819792	0.004275712054042863	0.013045508742152934	-0.009451264892510882	-0.002371942797977149	-0.0032443843728169335	0.003585181437618591	
0.002820035200239637	-0.001990301283849852	-0.0033255061598168718	-0.0023631721656766965	0.0006111557764975264	0.0030381201218959274	-0.006710017397000615	0.008161463026897216	0.0015753853374588995	-0.0069353657161332245	
0.005067619245925891	-0.009357971284837827	-0.0026150845672139565	0.0025635613528142303	0.007020604597879288	0.015802821949997763	-0.006457723903877826	0.0014854204514672233	0.0032789694171945303	-0.008036789517196047	
-0.014368183168991145	0.00473533833003902	-0.0058829329713275405	-0.01623845865822155	0.008175132317422194	0.013524378387435731	-0.0068839143830003785	-0.0037476138321760376	-0.00666853414178899	-0.011012958847789148	
-0.0009210451334714454	-0.0156948582188962	0.015244569588317578	0.01941271857661179	0.02776533544856648	0.05696201309907383	-0.015617849851380157	0.005409874768615323	-0.01009503750163359	-0.0015616899779921222	
-0.04466587834245169	0.03703570228817705	-0.047872924600441714	0.001236349836817975	-0.07124509313179897	0.03996844637507198	0.0447536422983539	0.02365340447470428	0.022297973561244855	-0.009009489333456407	
0.0849628261601078	-0.04871325130285946	0.06068144858311517	-0.05401855632560774	0.13391030260166525	-0.12562880729239198	-0.11153559469747282	-0.1276417423962497	-0.07578586070968998	-0.002878731825827518	
0.07962024710370312	-0.10557651519767056	0.4519078832192317	0.5325858925188983	-0.05640084960173571	0.7047797179329304	-0.0003051791224509764	0.3416505127934256	0.2073316652592028	0.4451606706223315	
0.6794849331246978	0.8386470350625592	0.006183948022286893	0.979279043046909	0.5191497481747909	0.9020096144773531	0.4663118889930676	0.25032695182651415	0.23418099907840628	0.21228988888646247	
0.2934602438411016	0.030781701061276256	0.6057667146114081	0.19524810461317224	0.14920964372250667	0.4318235423364006	0.6086558367931085	0.5699344486255593	0.42373018855009764	0.2687046206642412	
-0.009041187447276637	0.3547987219922858	0.12945863601553373	0.21819475368400332	0.09174587003159225	-0.01807965373098254	0.01702731399240726	0.16362015631087173	0.14849733106805207	-0.10341938060663401	
-0.04437162599365103	-0.08349154610022137	0.08705701219341355	-0.002703487704539015	-0.06558438332640742	0.006757777032353271	-0.050705157415261694	-0.04678680780567126	-0.09140667887825804	-0.1144140170251315	
-0.009586790892425338	-0.0190827803577879	-0.022385436472165444	0.004924411661097742	0.0329146346096221	0.04661307584472842	0.04694192317371991	-0.0017993357854054098	0.020415565079909097	0.048936691381434604	
0.016191595712637057	0.010168669221323605	-0.004037717061009174	0.010589284081288789	-0.007522011083577342	-0.023767558453344207	-0.015049220433046302	0.03223783378272655	-0.0006659163614703684	-0.02528252258650912	
0.0005219481045315624	-0.0001207807394415594	0.015050507563535646	0.008949138345078723	0.006836749810410767	0.009302515014799638	0.005224590703585757	0.012848663971097334	-5.932274658421003e-05	-0.00336022764411028	
0.00016897775559081093	0.0034348518470961385	-0.009538767221041628	-0.0001079655406041751	0.0019480534512550946	0.004497573169944462	0.001015946722057571	0.0010165305888921066	-0.0025952267461433645	-0.004082474883030014	
-0.006003480193239702	-0.006440518703247838	0.0015262240513567939	0.0015413178213969053	0.00048419640137515034	0.0015443128850938766	-0.0031415665669796	0.0027048194603905883	0.011174839059228054	-0.003855095240051195	
0.006851291548519468	0.0016051084788584087	-0.006098030095261857	-0.0013809252947728618	-0.0009021615778909744	-0.002251080806754789	0.002086566422133978	0.006694091717235085	0.001326944344179689	-0.009959874094202155	
-0.003650019719159031	-0.005402561009155512	8.165909205672813e-07	0.00042153518554448186	0.0028164570333063313	0.007788837755635736	-0.002150173736757715	0.006418394612838457	0.0031996802144772154	-0.006716751713017972	
0.0012715635350611712	-0.003966257448940036	0.004317090993107358	0.00011441300702769475	0.00018591720355828472	0.003591197059288433	-0.001210758262251021	0.0038465360771110344	0.0019642406083607727	-0.0026433515232634815	
0.0012781603625745628	-0.00047820374192100165	0.0007455821264786891	0.0050044152664713805	-0.006135864073499692	-0.0004149129879344385	0.00145993527687323	0.00474930448965084	-0.003408762216404702	0.004306408618034452	
0.002034681382684746	0.0018179471123338127	0.0029677863233271476	-0.0001586152964425282	-0.00461202499347881	-0.0029680886209338822	-0.004820861484569541	0.0005098088076529338	-0.0008079267094112452	0.005294444536635211	
0.0074173828308700136	0.0005177702498134839	0.003710559734548111	0.002562621763989292	-0.008415976958923387	0.0011523362534611981	-0.003058009855581156	-0.005923432366621474	-0.005136217649725974	0.019459625605226724	
0.003964460947333575	-0.0008263786085260727	-0.0041184784586583015	0.002947877073436506	-0.011052323494651314	-0.008485350887125242	-0.00023730322527430243	-0.011253859713075784	0.007925092189141501	0.021892843090888774	
-0.0005540435159560398	-0.00012633117124750417	0.0023765788442641563	-0.0012959569296275555	-0.0024301091079286124	0.002762055735586889	-0.006783812805473099	-0.006997431523144659	-0.00506349492132994	0.017983700884480428	
0.009118311575625185	0.006526370736576399	-0.004636813575429027	0.005461824694011543	-0.0019335292983193395	0.0015250008947802168	-0.0029465145693637644	-0.0011474480186409114	-0.0039734808879617195	0.005994586497256262	
0.004818116878673586	0.001833756038123123	0.0009977319477406368	-0.005729388062458231	0.0014349965716972757	0.00522677686189606	-0.003973991986740758	0.0020978140018063384	0.005341111016154549	-0.00042736225638977386	
0.005007972304684873	0.008540749528441593	0.0009854649710408243	0.002394768627648427	0.0064426542628138435	0.004397670848906647	-0.002026256635816452	0.007233049219734984	-0.009198056341775769	-0.002781140935874818	
-0.004815608177504079	0.000548069204038706	-0.0010782101414156854	0.008046289833262365	-3.429826458033203e-05	-0.008728233683061777	-0.0011023342827608622	0.008381066701945614	0.005780677598621366	-0.002268816554039173	
-0.0012619562149815404	-0.0005218848464575362	0.0010089814038340573	-0.0022705474543766543	0.004914950260935066	0.005166537363927347	-0.004396249460515564	0.0007622914650285443	0.006776729256438071	-0.005628239241329665	
0.0020409220032422994	0.008495781527603267	0.009051378963747192	-0.010177895388718878	0.0027099367484318803	0.0016748448685479271	-0.005915102243862183	0.005120033125195984	-0.005620575884487416	-0.00520824656981463	
-0.003004211776964087	-0.004399121700330563	-0.012492948488985871	0.011343406067555325	0.003778994081627335	0.0055396698266289785	-1.4007805724404371e-05	-0.002774419659618481	0.011233275435711357	-0.010385724281164552	
-0.02621574649489776	0.003307351430104873	0.0016938476557968444	-0.021005338130931906	-0.018514441120625162	0.05484640773552127	0.003319327808770461	0.009906877866008662	-0.00010933784308115503	-0.0031397235684219316	
0.01031246293179058	-0.013754494464794997	0.04603360391473918	0.02354773648872582	0.021188752007964474	0.03164147741266754	-0.010889818047304631	-0.008249534356061669	-0.004782185025053299	0.02259278777103815	
-0.03547643794389826	-0.020711114197478557	-0.15224678183616677	-0.02007035332201407	-0.11351236210585464	0.07020706081190757	0.017279426538125284	0.028399684182129032	-0.043354289555393825	-0.13026164649641742	
0.1564159978626128	0.7162727526336553	0.5735406633906426	0.32123214013496976	0.19556108327247476	0.04070330622757608	0.04478851474485967	0.5204245560920879	0.6465035107775153	0.6570752451895547	
0.9008939989781309	0.8527106423966624	0.26729515950198574	0.7153729117261431	0.10286337598767364	0.5767180483492987	0.7282285308901235	0.8995173789123623	0.44664332089995223	0.9049737618457	
0.3287924485961239	0.4291458104485418	0.035952312011526	0.19078791102210252	-0.04140723143338569	0.11973370968020053	0.30463121653173414	-0.060478166781760996	0.21458037071226463	0.23393136418166244	
-0.06850182480633858	-0.16021418275731292	0.0822697025905496	-0.20859604402052392	0.015099462422104446	0.04007564229560816	0.010710061860031497	-0.015887535636141824	-0.01762230642972728	0.03055721718263336	
-0.002387807455936148	-0.02407855892834919	-0.1081580328511157	-0.01909389530425586	-0.052600717810590635	-0.13490975428647337	-0.03127551707353361	0.04218226398342359	-0.02242074922433083	0.07850177634774544	
0.01953429727253502	0.04289335241088594	0.012106549291306742	0.029446108009213746	0.013307760716872624	-0.025957140745546472	-0.021157063938508202	-0.026937087846655633	0.002581179530992119	-0.03647574505477875	
-0.0215618664577401	-0.019925443476154284	-0.007827087508944685	-0.008882917336927644	0.010469924176577338	0.026044944228134068	0.005038417321143532	-0.019589635675290783	-0.007321434464599334	0.0031476666253722474	
0.006900564851540277	-0.0038594362882076612	-0.0014060868408726614	-0.0025436008974258086	-0.008023943121416981	-0.017348380452076765	-0.009293145762638804	-0.005784984622344717	0.007073549366058199	-0.00103219670268878	
0.0021147767100439517	-0.004988011177178719	-0.001508588512863167	-0.003949421559372445	0.005909484166456333	0.0013600583526125302	0.0014390352196672026	0.013736164894558265	0.007990328044421832	-0.01250176918251882	
1.8823406340961678e-05	-0.0022489130951265928	0.0016803800869420525	-0.006856113374750045	0.0002548699168546049	0.006833612339912504	-0.000651048034546254	0.006366522799549249	-0.0058477713389003495	0.0038516999560618045	
-0.0010749716850752449	-0.003700497595552413	0.0003941118736479528	-0.0002537757376668451	0.010061167586444915	-0.001677648067559054	0.0005980010818399409	0.007382455735437527	0.0084633249383138	-0.007593179218368465	
0.002232119456553597	0.001107622042817779	0.0008084619104425485	-0.004751727147308485	0.0015237316410929094	0.0004935338790855786	-0.002918736226604627	0.012030342372102812	0.003738742478684505	-0.005390428699061193	
-0.002414709671196434	-0.007075679860931035	-0.004248394668776371	-0.0008881460422884626	0.0017535657710508192	0.0032669681492010854	0.0028354265430619897	0.010541265597475128	0.00016778216758931626	-0.009824614279226441	
0.0031383271343390453	-0.0037369223004012314	0.0011349963918748007	0.003317709618035876	-0.0025521240815083693	-0.00032391892916847043	-0.003367457895206057	0.007275274306039058	0.006608867636669805	-0.002800774405035561	
8.653442876009517e-05	0.004157687959253509	-0.0011325800673197737	-0.0004182066071505237	-0.00911331618053975	-0.0051774980588624436	-0.0006469824855926173	0.0005171119699647603	0.004563467986044649	0.0071901995618810464	
0.0035303692226718976	-0.001927423201475582	0.004085544523749986	-0.0014522594612734006	-0.010011731261256231	-0.0005399573726457256	-0.004590149706584309	0.003365226153437378	-0.0020330729377756383	0.004066466582433584	
0.004094517561111444	0.004247832060001415	0.0009222264662588767	-0.004566019115171207	-0.006075962001415907	0.003578406984694441	-0.0044402668294835565	0.0025999805457923063	-0.0015109906445821932	0.003570605353988126	
0.010231476319953591	0.0015219153459686845	-0.004176828106773918	-0.0021375648380636872	-0.009457208141662204	0.002145307737556285	-0.007385662326534684	-0.00237700924585209	-0.0011070607253294245	0.009309266415483602	
0.004009920559405889	0.012013251330544802	0.002440095895915984	-0.0038182237098449705	-0.0030332768691336775	0.00399284583956566	-0.004782536675161837	0.0022670749545720664	-0.012299819672944419	0.005867989404707316	
0.0032030814194327706	0.00425182176253888	-0.002539110190675046	0.00687422626750697	0.0015464560286868232	-0.00224897036434394	-0.004986381670242184	-0.00131156291667866	-0.004758129311731343	0.004121953737448147	
0.0018153160678249106	-0.0011849144970348907	-0.0015830632071811286	0.006441125257725335	0.003941944907658989	-0.004043654728265053	-0.005084174723983575	0.0003758160189158048	0.008359132042350215	-0.0018820407593166445	
0.0055513445951017246	-0.003467391615270131	0.002582436405120195	-0.0018194443442411054	0.0051555309031067085	0.003989489792463999	-0.011828882728272656	-0.004510157850405913	-0.007277339922732709	-0.004951478212753824	
-0.002982676260410615	-0.0017629300920057511	0.0011628440037767206	0.004337648744213619	0.0012331885808307117	0.0011998521478672503	-0.003078445661727262	-0.002134742870183332	-0.0028229010293239804	0.000981845600277184	
0.002375218144568228	-0.0027962549398049866	-0.0005326503425469331	0.008762572649506537	3.59991563764503e-05	-0.00864821691675898	-0.004875533465323721	0.006921636404594607	0.010271552016222497	-0.0011729660841558445	
0.0017107826895151573	0.0006956488984621121	0.0017689444813794599	-0.002661304924438023	-0.0026673695276091224	0.02208549345968601	-0.0005952559185886481	0.006762766237014142	0.0036161777685428105	0.004441929302489252	
-0.015485659041744749	0.0018486511400375876	-0.015866695857108596	0.0010070132278340617	0.004147314854288579	0.042603219138341	-0.004192226729049561	0.0017285487984252301	0.013464680760620285	-0.004768152444890562	
-0.02260108900853233	-0.015503931108184113	8.714676798392423e-05	0.0058538219769275575	-0.03816865656142466	0.09631517490922634	-0.00704802841756139	-0.0038015465728457693	-0.033685781362035386	-5.257042214758779e-05	
-0.07608870608586812	-0.017440192954018562	0.02899993723778535	-0.026295883245049643	0.05318422510559978	-0.09174248843885391	-0.0008221122493628248	-0.0611772982079178	0.022591773987857732	0.026506900764547862	
0.6010930624283425	0.026911282789143662	0.44223888145810586	0.14578270036002264	0.35657654518347404	0.11692067375739555	0.04704234247749632	0.5828968396303111	0.11162853564779238	0.4228783892367195	
0.31943792543106886	-0.01829053855406467	-0.00994949027212741	0.32539334072574944	0.44783585495934036	0.3425438784934263	0.2666986461765744	0.8254460627386495	0.4049111631069839	0.5202514709763983	
-0.1867526729608157	-0.30228049739758595	-0.14249988643577058	-0.09360311519373345	-0.08644047454311767	0.1757682982635546	0.15481009517077202	-0.058942262122334554	0.0058797624068318635	-0.1408010109818554	
-0.012653544099322603	0.05253070876947084	-0.1542884753301922	0.09714904366522942	0.0819654886233177	-0.13442907589335448	-0.08967075060022	0.07919707804574228	-0.0436128814600377	-0.22623096528892736	
0.012856653181329903	0.05618396871698607	0.06467123639686378	0.039268733450279654	0.03569270882665487	0.17294455637300435	0.023434038312580282	-0.06391440975314422	0.05953517574357225	-0.03491776277761465	
-0.01504626166512234	-0.026390494982457442	0.0043557825284085	-0.010075043576460167	-0.007752429267886057	-0.0025220295794778328	0.00836765074261865	0.058579330507234725	0.008910501509492474	0.015403243676269817	
0.007999456705503036	-0.0013891762594920721	0.006877529964110695	0.0019866327484877417	-0.003954815877858914	-0.017698751614861556	-0.009726302039512498	0.007326957028639589	-0.003420290005762083	-0.015379000455463719	
-0.0008128091140577719	-0.00048203308568646713	-0.011219371368776663	0.012464046951575013	0.0038729566413282387	0.012256101120030559	0.004741995613793742	-0.000812820618637076	0.0017790073936315113	0.005156330899664642	
0.000255891312321284	-0.0010495999838195365	-0.007124950685195367	-0.0027035581338018936	0.0001294360660442206	-0.004310465478689511	0.0011675737207372597	-0.0024217741092562865	-0.0014855236532739212	-0.006010091720099276	
0.005207548512656164	-0.0008927204713445363	-0.003277599394185118	-0.009119230136067753	-0.0005038615428235595	0.005719010829292263	0.003130899389621416	0.008110819835598991	0.006267924220232564	-0.013111007113815262	
0.0004942216081134481	-0.0016710904605065713	-0.006282695746143732	-0.009578294346767914	-0.0021303838418840313	0.0011598947401360747	-0.0005671148131179369	0.005274914593945251	0.00644273307711768	-0.0031639119777436605	
0.0038722082243258836	-0.0002825279139507576	0.0006131762429789941	-0.004155331854953133	0.0021013610600543004	-0.0011608815428829462	0.0015965364283536889	0.0020346158198672653	0.006629122717970022	0.0018914208681533632	
-0.0023056833858831147	-0.004587153705569685	-0.0004799751803268486	-0.00536275077340537	-0.0038776623290971085	0.008750738829625604	0.0007859689919145945	0.007981000888718918	0.0057725585079858015	-0.00043273680924720405	
-0.0018453832653253762	-0.008005759287028253	-0.0023146640324855318	-0.002580572912842618	-0.0028205723982078863	-0.0015804392770168393	0.004692261976382582	0.013704565484532204	0.0025562535756761067	-0.00042479881242516116	
0.007568567483064428	0.006257310069738975	0.0005080054659795446	-0.004248677005520996	-0.0026174802896041594	0.0004500725984237393	0.001055511580973849	0.01322890048549743	-0.0017676028044139001	-0.004358206631492337	
0.008062758865773395	0.0037992580446852132	0.0019468413848150947	-0.0047748025433923535	-0.010509253465243087	-0.0026754765316263115	-0.0011218485998469255	0.010593278279542291	-0.004226210021882552	-0.0008949572437297581	
0.0077122520002875184	0.004941371018611158	0.001327264569033872	0.00020562384090276479	-0.004221914968869108	0.0008090069177440273	-0.0071917915174512315	0.009634304749403515	-0.0038053684655618854	-0.000712397095575713	
0.003940050309925721	0.008633781813392838	0.003723730998458258	0.001646294762763935	0.002883857454179354	-0.0003112713572218856	-0.003932169421575555	0.015334781570366598	-0.003281015298831956	-0.003985992216352384	
0.004675911109375678	0.001818301635027613	-0.0011314259749977407	0.003868205258879181	0.002346978847873024	0.003031499251008264	-0.008839656549373688	0.006549641581102422	-0.0006410827158120652	-0.0029777484231399494	
0.0022969718957365007	0.001405972982538516	0.002137376411117101	0.004332501440818378	0.006142820051853381	0.0010176837886340332	-0.008263108478501873	0.0046545359167896524	-0.007787507875120198	0.0007755753375872418	
0.007885205942949986	-0.0004334129484712807	0.0008715647657758807	-0.0006300464461129476	0.0011650558038417576	0.002608890335064731	-0.004583431405711887	0.0031190057494668764	-0.005683020030998393	-0.003475844691823263	
0.005909734299632682	-0.0007335439082977808	-0.0038360058530534026	0.010122301373305064	0.008657534325092305	-0.009137486426341945	-0.004190980705535251	0.001404263420340389	0.005754849302101277	0.004635915680375568	
0.004288922274857251	8.92513685816275e-05	-0.004072704097907667	-0.0015771935952193716	0.004218350288074792	0.004647640557514062	-0.002740015612277013	0.007238620904446992	0.009162878250869966	-0.0019578318927714095	
-0.010255442456650589	-0.004586499031150397	3.738078891265458e-05	5.600786358506303e-05	7.925233099478335e-05	-0.0008287042614266365	-0.008276621037523833	-0.00352549035784163	0.00022517928870872998	-0.0065816228664105705	
0.00864625236383419	0.0008152836751335064	-0.006145992681423701	-0.00047248432129998495	-0.004215283166186094	-0.010516008269759531	0.002789168051206288	0.0030118198553400256	0.01388771506523601	-0.01012455233039364	
-0.012948596837281641	-0.015603445937064926	0.011022274652091449	0.008629079588806852	-0.011179641302840668	0.05658215922509634	-0.013575184326720956	-0.02238519977945187	-0.01008105823667738	-0.0005587296107662735	
-0.022059350031536737	0.01989127305148663	-0.03363370387077374	-0.0258110279255012	-0.002385670028796907	0.0721410030747407	0.027686945327503078	0.04988430336531675	0.03082185829034643	-0.00482427908588398	
0.006189752659322593	-0.05297277519118783	-0.013788338664811458	0.06414729297043623	-0.1497084260131328	0.03908832763841899	-0.08512016287340138	-0.13084078307527564	-0.12389189949749088	-0.02096200710090746	
0.4193701893714754	0.11928206376328405	0.6740873906814419	0.31893768952455315	0.5995655126123323	0.6040349054582916	0.6452805848434118	0.15133017982480382	0.7227281926228266	0.17556200702307548	
0.7479071164034065	0.4314029975690576	0.660900668314243	0.8577372633843477	0.18268384134426996	0.14229411866678598	0.08103820747714628	0.7990617825144344	0.11393277097694798	0.6709058154508502	
0.19459753022725518	0.20079720990056374	0.2630863312268772	0.19685300780168363	0.023367394128817564	0.05623665583642608	-0.2502218668683668	-9.254329573819744e-05	0.17585155093465107	0.10223254821444124	
-0.036444098690887675	-0.05242353704101475	0.12706826707167568	-0.1714567115508029	-0.08143211415473939	0.1107971902760222	0.005640077789992636	0.0671489013805394	-0.08907254227797623	0.19840094979202108	
0.056192880973766055	-0.04041738598688941	-0.004658803721568047	-0.011025093761523608	0.00730985945081535	-0.09797488174564704	0.0858764801988558	0.11360458921541484	-0.06631426558344028	0.04567805469885448	
-0.017699615299830253	0.011926290449180295	-0.018094701020463178	0.008616626937354158	-0.0009048530692805801	-0.019544787469219452	-0.03250159498923906	-0.05552767505455635	-0.002277426101724389	-0.026929429539299075	
-0.0017273018488983083	-0.005109678525652065	0.002107791933817287	-0.0019238143026347296	0.002536187736146644	0.01817081259030321	0.0017229936767578881	0.021227929737673772	0.008437319684673225	-0.008058971883136604	
0.0023347241304525184	-0.0036495850461084824	0.010390634307492118	-0.006054453445294711	-0.004501759690466136	-0.004817889936398549	-0.0010590858768149724	-0.0027209051447413457	0.0058830426035088226	-0.0023917461378184708	
-0.0024696478599016444	0.0009814731476440555	-0.0027702762466420656	0.0020442817544695955	0.011818805978051785	0.0043445216675504356	0.003893709852434394	0.00619800613076288	0.003266384071351026	-0.008608912602003065	
-0.005547038208768019	-0.003669154991255701	0.0003935788788293731	-0.001832941527949499	-0.003488557388248541	0.002979995528924327	0.0014285994010349412	-0.00016645881835066227	0.0027288666394875098	0.006208366145795359	
0.00262163303668371	-0.0035152057430845973	-0.0025310414680292602	-0.01029535722101433	-0.00023322494669320397	0.005674249044351373	-0.006850908726886051	0.0024464336148682796	0.0007858773759157476	-0.0016860315113105197	
-0.0024277801509087894	-0.0051554471822835984	-0.004271171819093455	-0.00766697258533971	-0.004810486324142108	-0.002142100770248074	0.0003735545068917332	-0.0002629425166926521	0.010153753164982378	0.006499212894989938	
0.003385525553351778	-0.002513877417530453	0.0003917558331859776	-0.010299305492617306	-0.002235974897082411	0.009604014725306882	-0.00188764121040197	-0.0032888802562599756	0.008591641586098858	0.007892781629589948	
0.0035964026075933826	-0.010172268928700207	-0.002813022552111149	-0.010260188730490628	0.004770286786819482	0.006648791103807944	0.0006753112835028596	-0.002570789897915148	0.004761067547350346	-0.0035933027354560936	
0.001959781767574081	-0.003828281825271183	-0.0031334705573527674	-0.002402738719735095	-0.0016185021765313214	0.004478556343701163	0.005473207910968005	0.0024852010198985293	-0.005196471670960053	-0.003088890758730261	
0.002843985152161193	0.016283420853027916	0.003944519497907925	0.005336681340671432	-0.0016393134320262551	-0.0013970901813416207	-0.002517235963375663	0.0080607834328419	-0.01087489354787868	-0.006190618248310333	
0.007856611224631506	0.008969414293096431	-0.002201913500144172	0.0027644662664309135	0.0009416046234337078	-0.006861028190033321	-0.00417092473012007	0.004597653574846217	-0.010405555675983603	-0.005942734067139993	
0.004516996183100289	-0.0026228520430874908	-0.0008313322322250363	0.010360488447517356	-0.006411841613871992	-0.007263856452853737	-0.008925607456399103	0.011640282513140397	-0.008267169073547416	-0.00039779664285560383	
0.00835415824764604	0.005740958740085343	0.0014576569562996544	0.001589066980569235	0.007974407685073017	-0.012074770051116844	-0.005464324651510091	0.011194014320884762	-0.0017693216878117363	-0.0033021946875780588	
0.007895932643424027	-0.004403530501834236	0.0028822100827841316	0.001305387988485223	-0.001029354410075304	-0.010384815475045302	-0.006187764290560274	0.0015062198305372837	0.0017114691321655608	0.00016545012068386246	
0.0018926750760723968	-0.00044783978385539835	0.0017444231986721082	0.0030750006955547497	0.00556042880167239	-0.011560015434842792	-0.010497547346480167	0.007436597051303957	0.008725934695988116	0.0027536689444484443	
0.01373957969826971	0.001269501478194794	0.0024842768565325603	0.0004223260109282829	5.34626996752323e-05	-0.008589635490341037	-0.006196412141969901	0.0070657127246577965	0.0019375415523987124	-0.005100867330213933	
0.010281622650764493	0.00018902957488830459	0.004010424084589644	0.008357626116578261	0.005551070984713727	-0.013064919336360175	-0.008916829154939576	0.0017194916479853525	0.014555315104836717	-0.0035338543200659637	
0.013436315886379979	0.0017529461589766003	-0.00348382480980649	-0.0004642169019854341	0.004054909693796495	-0.01824897460268691	-0.010353698585385766	0.007832202895995113	0.013441642960506548	-0.0004592829053549289	
0.012165580083966877	-0.008935544918423424	-0.0008790106971262191	0.0005705838537564609	-0.011225542632209663	-0.022993423042312697	-0.01639578248945313	-0.002302849176057708	0.012373926253520682	0.007233218260395697	
0.010863785760724578	0.021929963937838987	-0.02362555916155723	-0.010050770992772884	0.014573223542939587	0.0379627014599325	0.016182098855168865	0.03060292269694378	0.018536318985501635	0.0021204859723136793	
-0.08355605242116458	-0.050510300504001175	0.08171933798015027	0.07603415376717773	-0.03576647795239867	0.10756455969272062	-0.03686395409833267	-0.09690065902964305	-0.08080300601667113	-0.01935337527288119	
-0.12424919250922856	-0.05305445115818859	-0.20995405753453172	-0.13290293993217459	0.05930600144036088	0.012001660320042984	-0.06802548950826857	0.25440364226459755	0.03445047980290956	-0.1394685231959384	
0.47908190844797854	0.4235434790941603	0.5145203783221362	0.6640448436427195	0.4122520412834386	-0.004307649593819257	0.5098052126453457	0.019865411164023846	0.6565121475704621	0.008956452984941929	
0.4975134372612864	0.7266397075134949	0.5970734727102317	0.7224973939332797	0.0041880009726806494	0.7783625001418663	0.3148054217889704	0.5936228863486114	0.34410854060923	0.6970714044811844	
0.09880443395820021	0.06313037149487513	-0.07366671367136844	0.057338863445680885	0.23168390298157915	-0.06421731560012106	0.42749307432089406	0.14796548877791055	-0.06717805750596811	-0.05213192982039484	
-0.04058410633229431	0.031472463302538486	-0.18680596946935044	-0.021728442861048577	-0.0648729780652761	-0.212790224052763	0.021724374819014437	-0.18799188102808304	0.12707862570118175	-0.1238179530053768	
-0.1333111816421715	0.006722536603274377	-0.006393518864160364	0.06381550817340272	0.03227117373526566	0.04639182280345464	-0.10657112757530746	-0.07557899908606237	0.0875131725337287	-0.09593123522150268	
0.037835725881056576	0.009922398598505055	-0.006411829138635245	-0.00815501099799408	0.007181775807425778	0.05100717271145945	0.04866373385045662	0.0598262318593817	-0.004308452838278484	0.0004512415946028127	
-0.014834382412891596	-0.0035695295500158476	0.013995841452247115	-0.013943896756094091	-0.0017168117696942423	-0.012664610515502724	-0.0061392069343157085	-0.024256638706676246	-0.013182618879924286	0.002785094272779774	
-0.002779369320518457	-0.001398492457427262	-0.01387036055709523	-0.0011747614165766485	0.0010592242902301378	0.00045689063176389657	-0.000499729388664896	0.018764837428085525	0.003781117250966161	-0.01764717320998135	
-0.0015796719940852826	-0.009399694104146145	-0.007030984539958695	-0.012961940107122929	-0.01483358135325607	0.002813136809193192	-0.0041986355905448	-0.005891478983521555	0.004949176203930963	0.004471841659305516	
0.005266844585127208	0.0028314229166388045	-0.0008785445923514753	-0.0069117127249692795	-0.003873297128730333	0.000503875879493009	-0.0016531461066095353	-0.0014011686468416806	0.009420141088381085	0.01662417607846823	
-9.313604580900212e-05	-0.00209172533783399	0.00023337688827668318	-0.005488301200289793	-0.00527800242725705	0.007540210380343437	0.007240706916133189	-0.000129458017232707	0.009126123461818129	0.0073169501239680555	
0.004363758963381913	0.0016475346249142117	-0.004824941898930703	-0.013430529122137835	0.005997306148539152	0.0037012361093316667	0.002599197630748672	0.0007120192178928051	0.0052424796823307244	0.006024316975189389	
0.003956530259952343	-0.003780128110617339	-0.005714385906816174	-0.009919852991608911	0.006299581094831198	0.003276544389858603	-0.0005113348896100717	0.001838804029500081	0.010110209814722717	-0.0005030942887036872	
-0.002946325535674338	-0.010827855805452459	-0.007227374674468316	-0.009464009601196905	0.006208538675592243	0.0043768012391506034	0.00042657982931969095	0.0007796082432349714	0.01619842651982821	0.0029762627628677927	
-0.0009995680115342776	-0.011589005461751336	-0.010594848747155269	-0.004077856478598261	-0.006256283158280639	0.007810727601937552	0.006712769504674839	0.0006122633599681015	0.011414417415852885	0.001449000702366001	
-0.00499894707286684	0.025017408160138373	-0.007448979396936473	0.010499714537883372	0.0009887947206522428	0.003936959977817617	0.0019457588442330336	9.228915885549716e-06	-0.003411348774912221	-0.003074843531153784	
-0.0050151941157945724	0.017606020805009535	-0.001758252293913974	0.01716159837689769	0.00494651846053038	-0.005504134378036478	-0.00816255381877048	0.004315830826833782	-0.01254160840956977	0.004187913622579723	
-0.00441175810989463	-0.006182776843766354	0.00207578293609059	0.006903672879981129	0.013801366464434205	-0.004254329774352283	0.001681101291631869	0.002918059859137237	-0.006125326597641881	-0.0020417911891920403	
-0.000731507274642437	-0.005288004020721736	-0.0003648990509267117	0.005947528637690444	0.0020698225739223877	-0.008632442181505703	-0.004866805579720325	0.006782274912869967	-0.00010927687762293459	0.0049835414544437745	
0.002552577614276287	0.0019056085580747735	0.0012839127529512522	0.002757387312369596	0.002961332712885675	-0.011535655471550072	-0.00019791693071406985	0.00721246359607979	0.011231960440787999	0.0019929882363030117	
0.010444037673002749	-0.0015373633844212836	0.00010583353422319133	0.0015177616831072909	0.0041529445374106815	-0.01314093653203916	-0.0042499510734926756	-0.0017742316232798696	0.00100369415801249	0.000539551930966341	
0.00535059222967396	0.0007719903729906377	-0.004706123178383124	0.0030097642025998044	-0.0038490768589569085	-0.01634874937191607	-0.004817887029465009	0.003307120215209567	0.004701147890497163	0.012223815626925646	
0.010806050124852125	0.0037029020941837625	-0.0005396526832480712	-0.00999752159059752	-0.00028685235784562844	-0.017751303450877914	0.0009300978704839875	-0.0021329203901875567	0.0016184043219928863	0.004968983180147288	
0.0006753038552656538	-0.001021681089748202	0.005135259559963525	-0.0015426412993664244	-0.010730738065291148	-0.02592422678061274	-0.011446056681074577	0.008878774122160862	0.006176494850904579	0.00011523468434587058	
0.012747188135545444	0.005270657880353288	0.0023660723572181642	-0.004806241854218464	0.0060733898503301745	-0.007489996203215221	0.0027627061174251817	-0.001730211895612652	0.011815304884396097	-0.00299480481732986	
0.003643467351896031	-0.008029664225936433	0.057295079860023745	0.0460817569699661	-0.040024921653987716	-0.09630076439626	-0.03330190736434492	-0.004483962806049597	0.02579939571878984	-0.002212699766928227	
-0.012234646489585225	-0.027517860284492945	-0.22292951089266685	-0.1241593931706385	0.035852909384344156	0.24012748724890398	0.07823255016666195	0.07462755292750471	0.09214834177612072	-0.010779048026101292	
0.23699898915411977	0.20847115964425364	0.28998052519996304	0.009438665917218987	-0.14396407507266493	-0.08536415486201478	-0.16194432875110412	-0.2702606915558463	-0.21506263910081533	0.2654650127183521	
0.7458220535230516	0.04944779994256669	0.18425806969635095	0.1785742824040865	0.04324223537934316	0.06934977534125719	0.3445892542216074	0.6569973257250332	0.0017835002415801827	0.6149888593732225	
0.48719934402788756	0.4981320604609991	0.04451691508058208	0.1216268601973797	0.5911896554363645	0.40426478323185344	0.420141554235383	0.3354205693331573	0.22264786300405662	0.8983935807417638	
-0.1551504647083491	-0.09376368836193194	-0.01211325501817598	0.3472182418347572	0.4484108600951872	0.12805962371611926	0.3623369853683763	0.21072361347504362	0.5553372390196896	0.26312241546614124	
0.0033978414336184918	-0.1474033084760287	0.08681545134086915	-0.07119076354536756	-0.06498668576748601	0.1885695765131613	-0.3254335492990686	0.28199580209692626	-0.4163101569627825	-0.17958023798278921	
0.16434731270837974	0.0027830329607824483	0.06232234685350035	-0.052774739646476755	-0.07356480993763173	0.030781087541510706	0.10223985248106097	0.06432465345380854	-0.039260406110553814	0.14641417610238827	
-0.02749985295973098	-0.017239554357443846	0.05526088888402911	0.01900715740761904	0.008613505317973091	-0.04989359145510411	-0.06730341651834501	0.02656528422286478	-0.02063846629969849	-0.04013012035488961	
0.00023427545517784452	-0.00012303280578013074	-0.01633629022310134	-0.0006678582460186319	-0.01093015598266506	0.01851644557730103	0.005886876906614995	0.009213113681548814	0.0194499317307607	0.009800732821406057	
0.0042804656574244315	0.005346174090977012	-0.0037451556084040195	-0.006234415234632632	-0.0056102413017993895	0.013739083523165324	0.002568883490688318	-0.013396637863249312	0.00437969430986431	0.021837567658220633	
0.0024615843796775487	0.006471915784172562	0.0032033419691569185	-0.006460774776856077	0.0011093288477272397	0.009672506306565477	0.0072826508978394025	0.007488622270932297	-0.0012998471089831919	0.004269075909732431	
0.00043913944510614813	0.002023737551717396	-0.0012099714642424466	-0.008199905763644074	-0.0009879351917480622	0.007956463438701423	-0.0020817424717475253	-0.001013220230301348	-0.008468123427593411	-0.0006271204099662464	
0.0017595345320427754	-0.0022084344864045586	-0.004209136679490032	-0.0035827009667765606	0.004951100244142406	0.0010168641117381822	0.00026270693716783116	-0.004784398199732267	0.0007504154251631379	0.010666679646150987	
0.004201806640237842	7.633407600640011e-05	-0.003392605768102475	0.0013252741053915741	0.002954958974940268	0.006558677291944518	-0.00568566248282254	-0.005809158090415041	0.004178413577259857	0.004054542738390515	
-0.0016420236245303693	-0.00040923376051866394	-0.010165636417426186	-0.004358500306315635	0.007464444308125615	0.011773938636482831	0.004736060095253253	-0.00017312863270194757	0.007190215113033526	-0.0022806177840512774	
0.0042893710913556055	-0.01015822614390373	-0.0075324245642090296	0.0019082702837449584	0.0014295654538992878	0.008131798875324343	0.008817476911299606	-0.003467120130436932	0.01415138010377435	-0.0020570761854519968	
-0.003665789805191355	-0.022214539935556332	-0.006960270655129344	0.002734612857217775	0.007793601735459663	0.00856545162983712	0.0012752781825122106	-0.006233144267538929	0.013761852323342979	0.0025241138509341926	
-0.011516922541628982	0.05756796728324162	-0.019617517040916597	0.01354813670754191	-0.007823916499661267	0.00612070429964807	-0.0003613147738768679	-0.010005045635568149	-0.005430950532651878	-0.002626916971626267	
-0.007830743978020705	-0.0014785131844999833	0.0007297121314417883	0.005416433237152654	0.0006436218718297612	0.002240560682961612	-0.0010913654789670153	-0.0030476157430829025	-0.001018840878560311	0.0034023923373248063	
-0.008994280733654585	-0.005328278008626287	-8.857726284570179e-05	0.010871244814827364	0.006618392934773028	-0.002035165133962763	0.00350822562509194	0.006662027140805019	0.001351870447626609	0.003608574476661666	
-0.0050728859277040335	-0.0027430520107191735	-0.0019469544850720972	0.00045847947530357886	0.01052270194844622	-0.0008071335667746	-0.0011496216402496762	0.0036742082647469518	0.004264043369967308	0.0009252469503371391	
-0.0076592089829122965	-0.00018897323098309435	-0.0002472033374533084	-8.534892627128213e-05	-2.2740412454775604e-05	-0.002817943376642411	-0.004781217615823639	0.0022745981445291582	-0.0011008399671489691	0.0019175189459103138	
-0.005379796564400205	-0.00291787442517293	0.0058203027854788324	-0.0021785631905447377	6.676764037059979e-05	-0.00950308641045617	-0.00022238236107017625	3.618832927375057e-05	0.01140308827883755	0.004886705381459025	
0.0017674935906983455	-0.0010082689541062602	0.0020027253608207616	-0.004855850561903813	-0.005572493280055219	-0.005464164103549505	-0.003527935146916276	-0.00527444761143881	0.0022870735616735026	0.0019060105462789148	
0.002157138634242099	0.0007642400669550193	0.00012094883490108296	-0.008528054258224284	-0.0057740126605866126	-0.008279997022412442	0.0027854283874429995	0.0016025335869766246	0.01425155893761059	0.004819494601457859	
0.009135955043046947	0.0029539346819738724	-0.007015123590330659	-0.0048403443195237025	-0.002422022930717112	-0.01139688884280557	0.011681173271816546	-0.004061896676009484	-0.003827318931357859	0.024320082635304923	
0.0316253622862981	0.012883836886967646	-0.019088099455322374	-0.00010469485015189125	-0.001697151632695653	-0.026862343743266615	-0.006836595591720912	-0.0033153466593452987	0.001147626545703739	0.016561403088667916	
0.04059773530051929	-0.014913210916908304	-0.04469496234311557	-0.05602390491178523	0.03864148758831457	0.009205118534813237	0.02287473397722047	0.0014376433290354622	-0.008021915964157385	0.03046108393652702	
-0.18503372352369835	0.08024852731354906	0.17538894283967144	0.20287126076670245	-0.030359243447497897	-0.23188017645418277	-0.14687235876871202	-0.12961338135357547	-0.04607392352275591	-0.20083039043004455	
-0.12110981073793435	-0.20395048642310884	0.04117547365885643	0.16634891391464235	-0.006590098378566318	0.2350987460445621	0.30728383827178746	0.38173191853545396	0.32529003191522604	-0.0315867687092483	
0.5783548519339103	0.20592381951331803	0.6284473498619706	0.29084745730529005	0.8157576673287414	0.28629262997923555	0.3731146444551427	0.2245157064274352	0.6116407817140029	0.42968921816036126	
0.723644699195588	0.4488659507758695	0.709041356479581	0.4827955681716683	0.39106446380827353	0.6426067735175777	0.18201473695191708	0.7966821369256363	0.23620401781250194	0.4927803037880961	
0.2852338789062846	0.5209751741662643	0.3892171229342841	-0.1561074361227874	-0.024487598983314932	0.10084044389935179	0.4864263101592408	0.2143195858232962	0.037513485568804614	-0.08631631986130157	
0.0864137305885881	0.09298771723503182	-0.0661384105163349	0.15070206727243807	0.09085395971228385	-0.26373320347077095	0.16584980097490304	-0.04489487866661904	0.25168073677068986	0.058162297864611245	
-0.16745082175895487	-0.027464289715117843	-0.021997184859037518	-0.07136948335179452	0.0858114177184009	-0.1139993932325347	0.009865154455225721	-0.02712015460508518	-0.057797073142737146	-0.2304403338944958	
-0.019734265194311748	0.01841579476042323	-0.07087598930860496	-0.02142823445196373	-0.03707796587588389	0.04672126370629736	0.05517691438806029	-0.04074710858701363	0.08232800769237189	0.062401320630257606	
6.0989487629691246e-05	-0.004315621633897909	0.014607614949015624	-0.0021616030155936117	-0.001911141646908295	0.01001480372956328	-0.0018010203357082292	-0.005196567259704883	-0.028736161220604513	0.01306807868110663	
-0.0003407241236335576	0.0009368587926167841	-0.009461422155327234	0.007025158149494899	0.005922623039316286	0.009596124287710969	0.010180559646152543	0.006631607771130622	-0.005052369371632293	0.0008805336116426704	
0.002851743368724926	-0.004950262769029307	-0.008973188771889627	-0.00010403699212412827	0.0010034061484740652	0.005705607640700751	-0.004179102491917843	-0.006964159705140886	-0.005711557666067986	0.006806543143660884	
-0.0043092479362925925	-0.0011508504946045207	-0.009258804469641061	0.0024401727727783942	0.0007826062290246064	0.002984982139060563	0.0033695672963808994	-0.004634233278712416	-0.0017082784347064455	0.011399564772526505	
0.004077000742563989	0.0007383861649791537	-0.004649289435583762	-0.006938368673068147	0.005464472561536229	0.005888901256352625	-0.001291405217960827	-0.005748233295735552	0.0005953653151123078	0.0051112205731332384	
0.002709406647176172	-0.0032611914900845525	-0.006572342149161756	-0.0017101438068149323	0.01292084947090784	0.004289072036928701	0.0046129742592392895	-0.0007402230678910534	-0.011374772677396758	0.0038340766462814702	
0.002501456839105378	0.002286056380834358	-0.005462073095863443	0.0013110399373691113	0.005492919504901766	0.007761321309155073	0.004550526460688733	-0.0022135734148823246	-0.0042767483338412285	-0.0003485545917743746	
-0.006888752710373108	-0.03347695480012045	-0.004710626182771601	0.016136379427279888	-0.013167177746631648	0.002522383171573679	0.004143189807271409	-0.00406029549533062	0.02070167771209011	-0.00145493985134484	
-0.011543522179416042	-0.0019443856333034512	-0.003846122528750639	0.0052465063772664	0.007117206972344254	-0.003310745328593379	-0.0001514176422848516	-0.0014547330589900686	0.010498804244966891	-0.005737558574455718	
-0.0043872578287929885	0.05253415065090925	0.0025547828305897253	-0.0006674340742532988	-0.0056306855612894575	0.006658501403629078	-0.0030569361983866	-0.01336431344370167	-0.009582268466285326	0.00946528030887639	
-0.004989018232425418	-0.0024011453138740916	-0.0061562039387812765	-0.007684074709709153	0.0011443147073762511	-0.0007036525086265495	0.008335808698778107	0.003744284266198007	0.007282205529891674	0.009383752979859173	
-0.005181371583399448	-0.01056200165173532	-0.0032108575374590652	0.013803537250376155	0.0016838069511804048	-0.0032185950976494704	0.0008184485161692678	-0.0028726543020231965	-0.001423268572190801	0.0046802064888533754	
-0.009263500731032513	-0.007515399418732896	0.0026312087235570033	0.0030280335701795722	0.012595704909910863	-0.005282294442167068	0.002015875310581738	0.00706374323648206	-0.004643042144449984	0.003352641705916313	
-0.011388679487927449	0.003165042448014603	-0.0018654290720728078	0.0010249272876897437	-0.0015581042910442593	0.0012325436337138407	0.005239778836735029	-0.005820179815946236	0.0010487213937826207	0.005087225131393255	
-0.005802788416118143	-0.00025135957220726913	-0.004063452553040498	-0.004054357120008159	-0.009459460216148503	0.0018514908807753417	0.0025546573325600395	-0.0010384826510273849	-0.004431871047019239	0.010373899063182177	
-0.007209583741471229	0.0028299035526791706	-0.0018162175221718584	0.005743673198292269	-0.003776182904191528	-0.004153853789443795	0.0016669909077711236	0.0001667688228577319	0.003746923498842677	0.006527690335086561	
0.007649134768776986	0.004511670226021379	-0.005013986603935854	0.004433180587341945	0.003925110575854085	-0.004166691562162241	0.017295995307548474	0.004760726278027885	-0.006316605523101104	0.007937661473925373	
0.017210317898730405	0.003093251361260601	-0.011017891095208149	-0.005364585039527047	0.0027055998421610635	0.0012988389904922625	-0.0006635171278841669	-0.00536327314054549	-0.0007699997799203652	-0.005185536039732148	
0.01360495223487244	-3.926591075044435e-05	-0.011494970306454258	-0.0007370806114490996	0.00714198361589767	-0.0028989986033701	0.027119427968995947	-0.006708562026330592	-0.009893330015204942	-0.009878782267683232	
-0.018748980318674478	0.044948494275916684	0.040391932661631026	0.05127874161056989	-0.0157411533851186	0.016376261761489916	0.02391896212185216	0.005469557789766523	-0.0113518499425032	-0.0014977000700585814	
0.08551234943065733	-0.2065933797725666	-0.11135088608983765	-0.1642785310220474	-0.01243921064131142	0.16407081145419866	0.015272938304243026	0.06977837156186509	-0.012478682163736182	0.12073009137480255	
0.15961450471757022	0.07278312800907348	0.12104374445486238	-0.19583088167916202	0.07835478062428629	-0.047601185636631106	-0.16765110355288	-0.08184471542742641	0.21895869665958256	0.03643822249562117	
0.07622323387033174	0.37239204980359825	0.7867139693694823	0.7742067866366785	0.31080991751798814	0.4045548988313681	0.40784403864920904	-0.029528379737992848	0.3314982981519141	0.635035667674576	
0.3298521266678934	0.3421806040957635	0.1453461982014414	0.9586497574802045	0.11551807617793318	0.5531386472112392	0.054437559216569543	0.9019405732252295	0.44934980944452746	0.3967544087796871	
0.49344408355572006	-0.05833015387998105	0.07585666676803982	0.2157996083008116	0.3426049103370691	0.5440588424862608	0.49607345328572044	0.20656321929202495	0.305930941284128	-0.03817580303150425	
-0.20668839167319716	0.14534359463529553	0.058046092672635434	-0.09081859529078436	-0.2735550194746205	0.22896392726769488	-0.06240354730409922	-0.1825587903543866	0.2209407408167208	0.24890492007985077	
0.06062417766262359	-0.018054882236368704	-0.03308649368515561	0.07192708194675732	-0.07579769328985364	0.15461476541252536	-0.09967050929068537	0.16140722433388888	0.062206560143265796	0.19269366722044837	
0.02584318556533077	0.005327522005719055	0.085791231135606	0.04696396930989885	0.05807428510072187	-0.001187940111555626	-0.02297548312729788	0.07078191373914305	-0.06568139362471868	-0.014829993167052184	
-0.00035228932428840433	-0.000832148702955235	-0.034167809926547714	-0.005044432066350351	0.0062673793035873645	0.006548562476056611	-0.00017644882857104378	-0.008195580491325008	-0.002130835784751451	-4.750613471159206e-05	
0.009405762360954209	0.0012455432271464165	-0.003337425922754904	-0.005892012297531975	0.02168976591377037	-0.004045614192866011	-0.005574116803620817	-0.00954505220662439	-0.01244807147894735	0.0022222762175529813	
0.010455861412277539	0.003425763764898334	0.00096078999977608	0.002743594868296987	0.013940164432882545	6.684184928473712e-05	0.005483187118474604	0.0003364156183545485	-0.0068733291213091685	-0.0027838446238423555	
0.00372974715206717	0.002103311857868763	-0.0005052754079415174	0.002288576372713507	0.008917501872525128	-0.003981383704681565	0.0011825410630955625	-0.0018277748123652583	-0.0071584451652496476	0.001884712934915522	
0.0053865834910544926	-0.004084327884151136	-0.0013576697961006218	0.003104643139427961	0.006408716191085676	0.0037308136980002678	0.0024342507813164267	-0.008625980220792608	-0.011103254528289688	0.01007824004013409	
0.012203016017385422	0.004226616974466278	0.0020538696642653865	-0.00210407200924433	0.007918567319330376	0.0036982305757278476	-0.0033486297271047884	-0.008025674689520148	-0.012801891352753121	0.005674400922564979	
0.0023190399309587014	-0.006846098908072947	0.006282726396847739	-0.003737681844574227	-0.0003247778606257012	-0.0013194697520670872	0.014652482010315142	-0.007917997569231448	0.00798870036741064	0.0034251512082103877	
-0.01332290026322434	-0.03147306468978426	0.0021676096389981244	0.010224048149508629	-0.001813685590893554	5.443287710632812e-05	-0.005981000082233025	-0.006085843646752977	0.012784559893370205	0.005488281976893876	
0.0033158032199071155	0.03276297619337388	-0.006006409027431342	-0.011109743062452621	0.0008118551381218767	-0.003747890502123134	-0.004676299747177122	-0.0067614025773475184	0.0033799342151140097	0.006216391166186268	
-0.01019400252788861	0.017711904968743832	-0.0013317918289335636	0.0059454931507000154	-0.005081704831389747	0.0040461724288808594	0.006056263300354289	-0.012044118737816144	0.01045990962759671	0.015179743105881396	
0.0040615619679328675	0.015313049203056152	-0.004508465859432298	-0.006472061774024868	-0.0018846054727664641	0.0040273697431215056	-0.0037120870098340075	0.0005535701667806442	-0.006205757348457656	0.002577265693780042	
-0.007867200062908784	-0.024555390453072024	0.0029392995657361743	0.013340316470360216	0.0027272666529590483	-0.0003247364640270497	0.00700748557950595	0.00490665333198491	0.0032837564926205378	0.002964553796871628	
-0.004734360106902022	0.0023901675969947786	-0.0027022691992396523	0.011964917264079071	0.011027096014119891	-0.007617526601992562	0.0004228657977704539	0.0019519432298684598	-0.0024265293335173728	0.006580241442249097	
-0.004925078482766504	0.0016956230822944727	0.0037789667459982496	0.008732898251883326	0.0008531457681938411	-0.0008004036343866349	-0.0002412773527673521	-0.00015053715928046885	-0.008911154634094644	0.0017976329461087558	
-0.005576400795863486	0.0035855473779787777	0.0015594404999704143	0.004622766053222789	0.01120804984974209	-0.004460234084982614	0.006568301668926137	0.005876447334489502	-0.0007814626306056797	0.001825621014752237	
0.0030935620183914123	-0.0011875463257874847	0.0033327631618046785	-0.003967397431249732	0.011179195052712825	-0.0010771271476484334	-0.0014077396030078495	0.0022561119668589743	-0.0040028155030659195	-0.0021893882180867626	
0.01422179056076988	0.003455937665711542	-0.007261330708578603	0.003288380322940659	0.00436833088677849	-0.005180483176939904	-0.0061928325688823055	-0.0061585407940022915	-0.00040654521561293947	-0.0028267968568280524	
-0.002841020856426005	0.0007782020065235889	-0.010224480762197107	-0.0018848520960719432	0.004428669310264822	-0.010767918417404413	0.016029382569952254	0.0070914547184784274	-0.018134790515063077	-0.007616949521574999	
0.008305567946555159	0.0007139403940947483	0.0013410526818590004	-0.0020076531963560754	-0.003675861994847176	-0.012187550648171324	-0.0016494770382503275	0.00435975718926197	-0.012890179833163318	0.0011780032214109865	
-0.004751461270298559	-0.04209966360471692	-0.04666953719734414	-0.012564442169708546	0.025428635567434042	0.021508794248235985	0.008827381051557257	-0.005241972173729295	0.004328114513756394	-0.02436364770433505	
-0.05800559982513924	0.15360347028189783	0.06662554315609648	0.0986570271678943	-0.10649279918832259	-0.1912179559396105	-0.001935626449498788	-0.027318503140157428	-0.14311922897148183	-0.11414440519754052	
-0.04766479797584489	0.190558277077023	0.06253769528292419	0.11409885666863971	0.14972656288318414	0.36299354450794685	-0.1464705210783369	0.09961247494549033	0.37670029572923036	0.21835334899641692	
0.4899051511224358	0.34054160559961394	0.4146534886304025	0.24588130643773992	0.055449014784065366	0.9627155868495703	0.3171509882050122	0.12787618593358133	0.6882768069225308	0.5205532503309805	
0.1352004729698921	0.6513225724240188	0.07628495693461326	0.7223231984658958	0.7110711815351529	0.3513978788502905	0.3526069341318641	0.6978478209174651	0.029271651405984374	0.41730854649818633	
0.2479650375617018	0.6966844027340745	0.17773218071472385	0.45086128569895617	0.36239459033851834	0.278498155151263	0.7562817089582461	0.47363045116327723	0.021174667994191845	0.49867142659576685	
0.2800749510086475	0.010576204819676109	0.1210812191143094	-0.050685445422102106	0.5724706444571765	-0.19134816150628609	0.3625793737580736	0.5634583923917657	0.2650003424353076	0.32926650756824544	
-0.021247711906545348	-0.01150594742256769	-0.047931721806894714	-0.06384246327776465	-0.07677347872432008	-0.18201804355348564	0.023544929153994205	-0.2363383417530399	-0.13050089791614863	-0.2404370738823544	
-0.04163044791914992	-0.0028889214273880638	-0.06613678012357563	-0.05411767734703089	0.007053383530029376	-0.01621758759144594	0.00016756443524372508	-0.05759033437263725	0.03293399455707022	0.012379598528993152	
0.013430650675465396	-0.003488263604183324	0.024666299869162963	0.010425725165396126	0.017229859655271653	-0.016716341752461037	-0.0053063806355425226	-0.0008000808893437573	-0.0070134731508016395	-0.007921648936472304	
-0.008827841435566119	0.0004320454496006311	-0.00784453380265247	0.010664033783807767	0.0075526323461777576	-0.008635825378775162	0.006891193185360199	0.0011111502454738693	0.00011222526156940248	-0.0005902827958592748	
0.006769745575367087	0.0008797962811322716	-0.005680852396349424	-0.0030668508402005123	0.011125488851288582	-0.003867283660605064	-0.001052621518800886	-0.005839757219945136	0.0007972397115542423	-8.443072964627483e-05	
0.00696611428776424	-0.0007350952492966369	-0.0017057615515151607	-0.003391360059916859	0.013758632965540122	-0.00021742002158984462	-0.001504368802180715	-0.010133153078260492	-0.005992593455736735	-0.0009786262717960334	
0.010756233073435942	0.001093030935301897	-0.00030480865651254284	-0.0018865353678792249	0.006464332411270863	-0.0022645444142819567	0.003305915715223037	-0.005088776003847325	-0.0002997969610421689	0.005753437845149305	
0.005180248507530354	-0.0016754757459697613	0.00017883363519799475	-0.0037852991780140755	-0.0002766803864594156	-0.0006041784567348459	0.001121255950673698	-0.004568847393582175	-0.011295463758128371	0.008741098745614784	
0.0004788862139994694	-0.007202458536636954	0.005964235670366666	-0.0014486652944671848	0.008331710081374502	-0.00260359054755296	0.006434405417918044	-0.006232741070869245	0.0028972909053802294	0.0035593462270753873	
-0.009202024937875539	-0.017446416424085863	-0.0017604218989974673	0.0071396573832772	0.004520031215575372	-0.001534792531655424	-0.0029900334493956995	-0.002746929898190457	0.0027266027780062734	0.004877125513977549	
-0.001992014878527937	0.026443025820404288	0.005392804892951144	-0.004413258784778944	-0.0004742538199043995	-0.004972342734492102	-0.005172973152995974	-0.01685945301398738	0.012269072791079465	0.004866826073392088	
-0.007470435459572836	0.017912803565099028	-0.0022052188410113427	0.0008078647446343133	0.011416299197397584	-0.006311729131300659	0.008594706341026503	0.0016072575737234307	0.004781558404968699	-0.00088389490513498	
-0.0035962561952484822	0.005725996368985806	-0.004229887275434457	0.003306055071688898	-0.0009641270500040959	-0.0012731994398869303	0.000943916168298406	-0.0018541363864585856	0.0030135246293932026	-0.00013035433292376492	
-0.007917066375168742	-0.018593352290433223	0.004424639433410945	0.009813170181526843	0.0054781384125964575	-0.0021124250616399946	0.002821163850452068	0.0034882987329537605	-0.0008665965863082402	0.0066513922129232544	
-0.007205709167581959	0.008552939848743566	-0.0009707108043791092	0.005994365318243371	0.010003397110871825	0.0011643962187457757	0.00251974631869192	0.0021269139142689937	-0.011504496548080162	0.008030151702001522	
-0.008703316691811633	-0.0005727587197271947	0.0004780241519199515	-3.230515428831922e-05	0.0005741663297471294	0.0039009932138660375	-0.001525481568166642	0.0016133614774941126	-0.00021744911746933998	-0.0028511789645294093	
-0.004556266763976318	-0.001070110321469357	0.0006886542735049294	0.003353151420922653	0.009899523834998966	0.0022084593394255383	-0.0030268098920477405	0.003887885427055517	-0.0020185755611823726	-0.005252431726651962	
0.006251243329025549	0.0032975564985056652	-0.015017780738344508	0.006562988584728815	-0.0018604796412855253	-0.006964840997549744	0.004876117558606566	-0.0009161135264096913	-0.0014995249742828856	-0.002767906362523497	
0.002193691815943044	-0.000648032821652843	-0.005130936080056951	0.0011587180829510538	0.0030675990449811107	-0.0019451953319691545	0.01618552624547235	0.009561221189460737	-0.0035184996129342303	-0.009426586597927417	
0.0014102024152552912	-0.010206425692382216	-0.0002664996458838929	0.009903954940314515	0.0009584083574753142	0.003575154834750976	-0.007135239355197621	0.004247911451899474	0.006882178530684047	-0.0017786311544992445	
0.001076717932238627	-0.00037498764243013065	-0.020466730559709927	0.005745343827736624	0.018506266286437822	-0.0005252100120432845	0.014983438826085277	-0.007361659240897876	-0.0064870939048072025	-0.017366095863253616	
0.010838603972052047	0.03107143253235777	0.009138783560991888	0.015217871396106258	-0.04629828421931473	0.016006296465120903	-0.007346724590865492	0.02018756758587777	0.0010137909801438412	0.029631605119469707	
0.02965493974030287	-0.15200080088344478	0.011796338937017963	-0.06099055797853624	0.12255371228117201	0.07123097699415429	0.06959425225502933	0.006575202882816904	0.11730175340400922	0.038930807573419504	
-0.10686923954871665	0.10908445706714229	0.14368889954723363	-0.06076400050895333	-0.21462775748142032	-0.14483240840847939	-0.020470022083152465	-0.10543358447050392	-0.2786199803499039	-0.11975442643703182	
0.48941447341535343	0.3512151583001052	0.19081712417564503	0.012010138562733511	-0.005020939665918129	0.3070111308017334	0.174556267050036	0.6658847017276521	0.1781234923170018	0.4246854547799728	
0.37859392943865794	0.739022493151458	0.448149071201128	0.8940028766588044	0.2681471327753628	0.4643509213984131	0.008263229572811096	0.9460851287961884	0.608044645816949	0.950739630396299	
0.07784504186685708	0.648849462723032	0.35688859111524357	0.4698994331362063	0.6270898302569147	0.6964489144871503	0.39193402004707106	0.12324914880740538	0.19530189497041953	0.8701580434010701	
0.10376686932264369	-0.05142347557109203	0.35374144462288515	0.3904747636992537	-0.025723162411909507	-0.023133238232416684	-0.16939804849060522	-0.34639530352053954	-0.21652477451249666	0.11316675727392839	
-0.061819717675598074	-0.03740529201504384	0.08067049464912246	0.0691457013129458	0.11255325974293637	0.17463352058212897	0.004005265642759174	0.19066984496683978	0.08039268500934858	0.09401822607020263	
0.04168965789900301	0.011297938202256289	0.03862560132740864	0.0506048435258208	-0.005635453684290033	0.01763505977922649	0.009654656838978187	0.02869273528960182	0.00023269202071335703	0.018207131041030757	
0.003921618580126673	-0.0015328678036661324	-0.010632293973618487	0.0066057158466857	0.011398618668966848	-0.010262208978298283	-0.004235459578445068	-0.008031830445546416	-0.0005540647659065598	-0.0015413103848463034	
0.00605938453361486	-0.0006869516340314197	0.0071527603193437955	-0.011190105441077541	0.011772366093338494	-0.00745806306009471	-0.005311802172740251	0.0016653692336236973	0.004379877699356759	-0.008229634706310076	
0.0016861056810857729	-0.0029477566693320574	0.002856921103299793	0.006460692387462833	-0.00024285733084087273	-0.011793839336368706	0.006817269074048877	0.003681711719849351	2.299330461967487e-05	-0.003497527329379288	
0.00458911322598508	-0.00198505077248604	-0.0009754191080136377	-0.0012349691191905882	0.00974965439058626	-0.0020642145339377963	-0.011198050978783501	0.0016773010476463781	-0.003817500053547463	0.0023283439824321223	
0.0006295408631765923	-0.0028367773550755614	0.004593909520510516	0.0018772182692321363	-0.00025429729540119836	-0.002267588996103897	0.007025492680251797	-0.006953561240972665	-0.008343041105216335	-0.0018081460805173355	
0.0056813791559987715	-0.0011841063413104871	0.005495591062839062	-0.004561012822562785	0.005730811212406011	-0.004579241026035765	0.004299686833234616	-0.0066577000120065155	3.349251383493968e-05	0.01030496361523538	
-0.002122934810189957	-0.005629743358561361	-0.00036585415302666175	-0.004926843879143872	0.004386665324608931	-0.0050435531531673175	0.007870369240546774	-0.004793897180698327	0.00462781917037752	0.0030739533144345205	
-0.013285793902880493	-0.009630662512453569	0.006276844410350881	-0.001454981976625201	0.009968537803394186	-0.001173419304667588	-0.010855559691852371	-0.002948612145436946	0.008802933465122988	0.0012521171580711264	
-0.005694151227910728	0.018084679992716225	0.005291956516115361	-0.0021566327628229054	0.0037090859907508867	0.003452539668643251	-0.001484041183026104	-0.009978048737613786	0.0059230102118148905	-0.003208261380438804	
-0.002266652116168874	0.02484194399251675	-0.0023706677117407817	0.0011584061009692614	0.012959828065923084	0.0023076412324824916	0.0074925888485501396	0.0028322709797314162	-0.00175028783146131	-0.005228640793857591	
-0.0077370493229337225	-0.012397877021386113	0.0004980214967127613	-0.006260959187829092	0.008802816736235657	0.00015829013600578184	-0.0020473890345158383	0.0009170189717272992	0.004413695157038271	-0.005266600140084891	
-0.0077263778094365364	-0.008091186271697779	0.009113741012646507	1.1612250335143175e-05	0.013386825323980094	-0.004000442316233671	-0.001504566250751156	0.001945477613778648	-0.0013858268155617721	0.012428035760247529	
-0.007571377493765137	0.0016101019453796715	0.006260960429619862	0.0039749743688680065	0.010242980112098418	0.0004703942230266901	-0.0030024251210166147	0.005016230850069696	-0.011020351374532897	-0.0012490455128434106	
-0.00024472711252302077	-0.0013718662413708704	-0.003210838623278684	0.013750632535200317	0.013135528938055403	0.0019523826347560057	0.0007724783720883758	7.091853171046949e-05	-0.010865331923454596	-0.004690733612559456	
0.005868557596230371	0.002288199443171247	-0.00011307290994960046	0.005259968494238545	0.00263677946044061	0.0014999357118576525	0.0054099158559695205	0.0074938932990675205	-0.004625233780125935	-0.003143307348691597	
0.00216898525815197	-0.004413908439119731	-0.00360299047893314	0.0023782968256661173	0.003024125491206632	-0.003958164915826591	0.004299614631158682	0.0011380640585822303	-0.0047323789077647095	0.000809093819163048	
-0.0011149980689459354	0.00041472195052677085	0.002112417194706399	0.005108938922634251	8.902713930878026e-06	-0.006904559695962953	-0.0023415189144743	0.0026738841609878924	-0.003695442221589026	-0.010247330705189394	
-0.007646204055137653	0.008580294989726449	-0.00799203947438862	-4.328688439419823e-06	0.006765193420784184	0.011038632626765727	0.016101689008264208	0.001678379074664591	-0.008500721945800985	0.004744815085122515	
0.010001452781648492	0.0028787400563234926	0.012111766970515038	-0.0035057911217896624	-0.004167748934498909	0.005181679387372703	-0.016516618393831946	0.0013337378341981853	0.013356342351763023	0.002966823225482661	
-0.004088425769474494	-0.014538807725372738	-0.004406221211873799	0.00664751008281002	0.0342308802336747	-0.030161914892249248	0.021971228032062758	-0.01978096969762894	-0.012160351479265894	-0.031549345671914836	
